0:0.0 42:6.525254274014555E-4 43:2.68231864097193E-4 41:3.301315250427007E-4 46:-4.342922910810457E-5 47:1.1658762842166365E-4 44:-2.941176272138297E-5 45:-1.6679467788057237E-4 63:-2.594593589549167E-6 62:1.172180770138849E-5 61:1.1884572238325238E-6 68:-0.0028105414270761767 69:-7.590064231063459E-4 70:-0.0022780560208398074 71:-0.004287489515112382 64:-8.116338545447408E-4 65:-9.03560875681846E-4 66:-0.0015262122019280538 67:-0.002437957007554875 76:-0.00426584747420213 77:-0.003419948548455723 78:-0.004746339579198928 79:-0.003219989584836156 72:-0.00819513387551244 73:-0.010222446227046647 74:-0.008124191786518159 75:-0.005612965098122949 80:-5.394414107260473E-4 93:-0.005667404532424322 92:-0.003089011238873199 95:-0.011195261113400018 94:-0.007031225496985251 89:-1.6681458232756263E-4 91:-0.0010190491705648907 90:-5.945258407866464E-4 102:-0.015516147661702319 103:-0.0205364937376956 100:-0.011715106920539196 101:-0.016893487728072712 98:-0.010083794072398818 99:-0.011548826782096561 96:-0.012781917750010849 97:-0.008470048602105089 110:-3.445186010120597E-4 111:-5.002042470212897E-4 108:-0.008398559331589324 109:-0.0016983034402604097 106:-0.021751885932652114 107:-0.016683960396791944 104:-0.024936518959437035 105:-0.021702947101827134 119:-0.0031993865901783986 118:-4.863939250336394E-4 117:-1.8212750008908587E-5 112:-1.4808589326967102E-4 127:0.002093298833987947 126:0.005010240351211886 125:0.005428972635005627 124:-0.020451896019905002 123:-0.018480978711450446 122:-0.011329234427105797 121:-0.008489037350091254 120:-0.007912975143077193 137:-0.008060419589758682 136:-0.012705887903748114 139:-0.0025265583933533954 138:-0.006319345160873689 140:-9.529761252312197E-4 129:-0.012972450794470148 128:7.698163448270532E-4 131:-7.282852073309616E-4 130:-0.021568879256003443 133:-0.011447743276345283 132:-0.004812315810557766 135:-0.013543350510688239 134:-0.015869600233888056 152:-0.0014829711872627013 153:0.015142695159219748 154:0.012212854203398347 155:0.0410178272691353 156:0.054152394198474715 157:0.06651499207883801 158:0.03765585472520754 159:0.03907640344831071 145:-1.6987073009541823E-4 146:-0.0012355937729462546 147:-0.008589183519594533 148:-0.005086112742708437 149:0.012799794006828916 150:0.011084917194686903 151:-0.023475919755187376 169:-2.346151896679609E-4 168:-0.002376894426115887 175:-0.010205905411521138 174:-0.0034604074632478936 173:-6.0980306456745874E-5 172:-4.645216969968292E-5 163:0.0057912046629047306 162:0.006814868402804814 161:0.026757241248718727 160:0.04157206581843926 167:-0.009391917454363938 166:-0.016923459018493913 165:-0.012981990239897993 164:-0.011332470579146508 186:0.06317294079880498 187:0.04575321826032014 184:0.037731490011450146 185:0.05730726935815425 190:0.029480682101306752 191:0.02457702800466549 188:0.05369155041279331 189:0.046496192331545116 178:-0.004297919106741272 179:-0.011373250984744994 176:0.020190816648804424 177:0.008926576050854276 182:-0.004246841274514674 183:0.01231238855122107 180:-0.015507702759939884 181:-0.012523357733156756 205:-0.012184518926314936 204:0.020205185574088874 207:-0.03100053526994669 206:-0.06180229360598275 201:-2.880383370101217E-4 203:-5.27835609187339E-4 202:-0.005688188506812639 197:-0.0014603518246275504 196:-0.007618593194147549 193:-0.008321230869280681 192:0.011486653087014303 195:-0.017568206278243438 194:-0.03097272011598882 220:0.02901127611323515 221:0.015398815307863033 222:-0.029833658030939535 223:-0.022223605951145847 216:0.05198939983313465 217:0.03866479897744685 218:0.0365605735271949 219:0.03432793107099684 212:0.01916000302823139 213:0.040078935778320834 214:0.06540128955173065 215:0.07811627681546983 208:0.0013860256179796238 209:0.02884143311170438 210:0.013820218254485957 211:0.01933755680255722 239:-6.336961242463145E-4 238:0.012705259646780447 237:0.017228749115883072 236:0.009390873899498272 235:-0.0024208663231789747 234:-0.03498703439319386 233:-0.03719452526919125 232:0.015978694904675923 231:0.005114145888525354 230:-0.012363833844813328 229:-0.0010482201080618278 228:1.0255373494111775E-4 226:1.324563862499397E-4 225:-3.9316783648597585E-4 224:-0.007498092749015174 252:-0.007821644993497977 253:-9.24713685750528E-4 250:-0.010059646607617564 251:-0.025910944162553597 248:0.04637649929734433 249:0.040528121597286755 246:0.008239301608260105 247:0.01461439960253312 244:0.053569806628926825 245:0.01917596749069565 242:0.07025420630487864 243:0.06784277427760374 240:0.01387518238038242 241:0.022713768712639908 275:-7.089109005683599E-4 274:0.013172780984729498 273:0.06830888535178521 272:0.08233819029056806 279:-0.022378959980882154 278:0.010625930174771658 277:0.07046008765013681 276:0.043968736469659736 281:-1.9520019538482993E-4 280:-0.004974159281522589 287:0.016845336722043608 286:-0.014168655850864248 285:-0.003355269840660529 284:3.711353269882893E-4 258:-0.01354469351447412 259:0.01583948810280729 256:1.1416443054016111E-4 257:-0.0015244963825004254 262:-0.014930835172518968 263:0.013619805476277419 260:0.012387328652615208 261:-0.03860703437133144 266:0.011567122676738213 267:0.02327059690265143 264:0.016372271873897053 265:0.0011751755813447892 270:0.028077940884444125 271:0.06257262096827285 268:0.014856794279926902 269:0.011724142679517435 305:0.08925674289230004 304:0.06881805460585996 307:-0.011005439802269042 306:0.03793880115627081 308:-0.005176149988614064 311:1.354167448157821E-4 313:-0.0042815789838438366 315:0.01413236174205327 314:-0.020252873685774483 317:-0.0071502070172460575 316:0.007271363111445591 319:-0.011449612086347732 318:0.006586504754915545 288:-0.006163943882397533 289:-0.036128846985607276 290:-7.021633194784918E-5 291:0.01098264886217797 292:-0.008758394102035787 293:0.017976559003118894 294:0.024657696582357846 295:0.0034499275205146424 296:-0.026313267411037254 297:-0.03531970844660461 298:-0.037575687295625264 299:0.007987881666914637 300:0.06149975629966202 301:0.0645561728350642 302:0.04739294356630442 303:0.012900524494625898 343:0.0026936709786167332 342:-0.0189132504765448 341:-0.003409681932797514 340:0.0 339:4.293348932456167E-5 336:-0.002096334708958087 351:-0.03575660741041553 350:0.018757471777465763 349:0.01198937426280461 348:0.03565408396565787 347:0.0022564161323656152 346:0.010239651422897476 345:0.02579438749090491 344:0.03911274523929656 326:-0.09277748615230237 327:-0.04609070487484463 324:-0.0717478316344402 325:-0.10644279318838333 322:-1.9192184572373037E-4 323:-0.02814366347008924 320:-0.005407137468991905 321:0.016715329466767875 334:0.04450986413207745 335:-0.0030242383714397573 332:0.07443431801799838 333:0.08205242653372873 330:0.056063548145595304 331:0.0489366358272725 328:-0.012504603258861649 329:0.03529808508669642 373:0.024245625374654658 372:0.054847004193524576 375:0.039968924380922824 374:0.017977931040629478 369:-0.003381535895261796 368:2.215111436780709E-4 371:0.015915636743319705 370:-0.011943012860587675 381:-0.13845399966914362 380:-0.12947591382034448 383:-0.08750704966476526 382:-0.13472837752122319 377:0.034065766645717206 376:0.05053349284292969 379:-0.08514355099600823 378:0.006594028696283519 356:-0.04129784770544584 357:-0.020868989677408488 358:0.02239460496720291 359:0.039637712269873136 352:-0.09621213611646649 353:-0.12787302366828593 354:-0.12061528584750707 355:-0.08211953720805126 364:-5.497427149145904E-4 367:1.6905078594941903E-4 360:0.07796445697273112 361:0.07923923043230703 362:0.04621012116673551 363:0.0022183062402208135 410:-0.14151882643009558 411:-0.06153376550605742 408:-0.1261436526776624 409:-0.13588868598541082 414:-0.019153751579689376 415:0.033990250277421245 412:-0.01920287084962557 413:-0.026154628316133292 402:0.024388845996058853 403:0.05012076428641497 400:0.059600227139356046 401:0.04372844926563156 406:-0.025402926266026585 407:-0.09070563174704425 404:0.04511143502745122 405:0.03542510644565887 392:-1.2645047266101312E-4 399:0.03400239542038707 398:-0.011790370099961025 397:-0.00439002896508211 387:0.04192120173234574 386:-0.02520379241578706 385:-0.04112802215525171 384:-0.04205914011045035 391:0.0028876671844581016 390:0.03940507912835309 389:0.06793270202651343 388:0.09058286083710383 440:-0.00864611652254143 441:0.008352834643617883 442:0.009373118575725446 443:0.007229757551227299 444:0.04284716337806787 445:0.07646222962630891 446:0.030526899723320913 447:-0.0011260462712093734 432:0.057646267503607906 433:-0.005462107197576896 434:-0.07241757760383151 435:-0.12331909872955077 436:-0.13856957956200455 437:-0.15948286345592463 438:-0.12549854431319543 439:-0.05903245209820424 425:-0.006362110188532427 424:-3.147359401543351E-5 427:0.047049298628945246 426:-0.0054938113260064704 429:0.05766226389283733 428:0.05641219571809758 431:0.05560626778113444 430:0.04662933478790884 417:0.0743408867678138 416:0.06141522013644898 419:7.051340123102935E-4 418:0.031172062743239422 476:-0.0015274335635653725 477:4.43217253223688E-5 474:0.02235266796091448 475:-0.004338856772170742 472:0.03503653629691148 473:0.05922563934304801 470:0.02793520833635663 471:0.023513154305406028 468:0.012062164892078535 469:0.029535939131014547 466:-0.0860767095338357 467:-0.028972400505725072 464:-0.1523179023062501 465:-0.13010944702011681 463:-0.1368690212124348 462:-0.10844532927281635 461:-0.037567532222141195 460:0.05474720684847336 459:0.05669168708501244 458:0.05464856921188091 457:0.06597232030960025 456:0.0782420121919945 455:0.04472462578826296 454:-0.004083846903052023 453:-0.007306947191013084 452:-2.517887521234681E-4 508:-4.972061225485817E-4 509:-0.023044741234528876 510:-0.010566591707047664 511:0.034056281500595295 504:-0.0013350295774448276 505:2.921016212737367E-4 500:0.022397163948312888 501:0.02742892574859694 502:0.019991784014604802 503:-0.003973816104967715 496:0.003296012587173779 497:0.022326180318485274 498:0.03072745794094203 499:0.027168146936203248 493:-0.08680514069256556 492:-0.14353281180843044 495:0.010285482329763859 494:-0.033738225930222146 489:-0.029962745168250694 488:0.05997590882456662 491:-0.15045361355070438 490:-0.08634075278349515 485:0.05635146285353155 484:0.07273506677420023 487:0.0692602581127683 486:0.04255564542475702 481:-0.011997862666596663 480:-5.140440724151983E-4 483:0.043060753376379 482:-0.0035714428837396667 550:0.005312083785905035 551:0.004160901179857548 548:-0.022894401865804395 549:-0.020104122787448286 546:0.002971428909493519 547:-0.026771510169008066 544:0.07040931047594567 545:0.0535405164674021 558:-0.011309007853749527 559:-0.0019150090139923328 556:0.004348384822496368 557:0.012389697311884992 554:-0.006069374683925816 555:0.009825544730977303 552:-0.0020692983155379085 553:-0.006057075960865534 567:0.011049698168066314 566:-0.014045178987055137 565:-0.023030834765594334 564:-1.3422066162392597E-4 563:3.3837929458382525E-4 560:-1.598716807168416E-5 575:0.008044980168929884 574:0.03285181799492735 573:0.06970863069494045 572:0.06602209460907725 571:0.0646989971033086 570:0.04051267297769603 569:0.04293289921426184 568:0.028472632552962066 516:0.0749243610786604 517:-0.0020694937571446043 518:-0.06867952703821345 519:-0.11266370392330086 512:0.03496914603649252 513:0.043407233099083946 514:0.041692957732547886 515:0.05308442978011851 524:-0.006832011320161822 525:0.01048093834795095 526:0.0018278672225241807 527:0.018434256804556563 520:-0.09933701740205367 521:-0.04755931019736088 522:-0.009375560953297722 523:0.005232959859881227 533:-1.8569809897549486E-4 532:-3.0380391419318535E-4 535:1.3431843299220467E-4 529:0.015290571944781934 528:0.0017532458121037962 531:-0.002755138371324282 530:0.007562168642300619 541:0.03512299344316948 540:0.025811550926901208 543:0.05446126554495194 542:0.04804931340256261 537:-0.02038147570054008 536:-4.42644746064602E-4 539:0.029245200054582775 538:-0.01110466624564509 610:0.00609444831225443 611:0.007268687037658342 608:-0.019931477199377032 609:-0.02262868133254506 614:-0.008376594094644321 615:-9.010989835747508E-4 612:-0.0080003807381973 613:-0.023595266239484464 616:-2.3405225352923434E-4 617:0.0 622:-0.015837577247994773 623:0.0015702541285348575 620:-1.9031388828101613E-4 621:-0.004023627866428208 627:0.023128223453379018 626:0.04353811850955465 625:0.03218624102855645 624:0.02176158614014859 631:0.08661208378017227 630:0.07378233419486374 629:0.06448491125461298 628:0.033278439380277434 635:0.013829473497577415 634:0.023896692285865346 633:0.034731746516473726 632:0.057771746012543396 639:-0.022392851011883805 638:-0.01750916733593191 637:-0.0021983194883281702 636:0.004309824853540118 576:-0.014564670180462888 577:-0.01093335495584054 578:-0.021868825138771447 579:-0.0233668724867287 580:-0.030165061118665792 581:-0.02708448574406063 582:-0.024167607079056186 583:0.009723893831951472 584:0.017330511464237627 585:0.008017901985373993 586:-0.014793364976805619 587:-0.0012034685625160976 588:-1.9302906883336116E-4 593:-0.011919607504565884 592:-9.21002121665637E-5 595:0.008472094649616069 594:-0.013307812815868104 597:0.03475486053713888 596:0.024757556801903065 599:0.05801544051645362 598:0.04504606565918359 601:0.06506189888680716 600:0.060176247300051895 603:-9.400221799554263E-4 602:0.025329249473182186 605:-0.006627830206397578 604:0.004429400465825625 607:-0.027864081767027604 606:-0.016411837318922783 687:0.01587508856448506 686:0.01900901646210312 685:-0.0026897962902546917 684:-0.0034897905173470216 683:-0.012843495124094976 682:-0.011216492924833657 681:-9.28678080149508E-4 680:0.003724418315102757 679:5.154627105066725E-4 678:-1.0362312960016715E-4 698:0.0 699:0.0 696:-0.0033606379313034554 697:-0.0010186109055931986 694:-0.016065497855448977 695:-0.009115012424136492 692:-0.02445453559408195 693:-0.020678621083291913 690:-0.012876590036150132 691:-0.019362940637457277 688:0.0015741825628719547 689:-0.00821019907316839 653:0.02744332850900254 652:0.0052211535712560694 655:0.02155054233466022 654:0.04043358388672899 649:-9.918825569572899E-4 651:-0.007531792840677881 650:-0.010525460241899275 645:0.0 644:3.2621902048241134E-5 641:-0.010193307670289281 640:-0.01663574743590651 643:3.3421023233344744E-4 642:3.8634107535417354E-4 668:-0.006424942344548831 669:-0.00400998052022159 670:0.0018369460441361731 671:4.803791248376056E-4 664:-0.027401308242827663 665:-0.04523894634170855 666:-0.03066715130269958 667:-0.014574642145437291 660:0.05059344364369083 661:0.02591438681293021 662:0.0012414060693692946 663:-0.006113103550748637 656:0.03827195926464591 657:0.0445385847847895 658:0.04850646453542028 659:0.055941072304366415 747:-0.0032804865105008378 746:-0.006721588283746381 745:-0.009608557540341836 744:-0.00907741094615799 751:-0.0021774586346495653 750:-0.001480311125159683 749:-0.001414050148934058 748:-0.003071959036302524 739:-0.038728218320483156 738:-0.03514623151488475 737:-0.009993063998801796 736:-0.0015004481698161973 743:-0.006953782475417976 742:-0.00397374109600915 741:-0.004697458786402651 740:-0.01741574787791707 752:-0.0024190722478092375 753:-6.562710047140509E-4 713:-0.0392505791370276 712:-0.04916062546758696 715:-0.03048006819618725 714:-0.02993586588042366 717:-0.024753518293659266 716:-0.028972589030447297 719:-0.016736142465742045 718:-0.02038313472233332 707:-0.001003640849700507 709:-0.027102118034212374 708:-0.0025361045826583378 711:-0.04549378636901764 710:-0.04090830675397352 735:-0.001149414709591516 720:-0.012608857619427122 721:-0.010388372275038874 722:-0.007178780839240934 723:-0.0045805798411372774 724:-0.002554208150130056 725:-4.993921403740095E-4 820:-1.523161331032482E-4 817:-8.308320287450488E-6 819:-3.1293987753240973E-4 818:-4.0432927380974054E-4 828:-2.5306767053041582E-5 825:0.0013336302207714215 824:8.497757795053301E-4 827:-2.219217236746859E-4 826:-1.0896649799296276E-4 774:-0.0011195962011909158 775:-5.709184763551852E-6 772:-0.001685667692567681 773:-0.002427031316933207 770:-1.1501651324150478E-4 771:-9.81319354414449E-4 780:-0.0019219816558835672 781:-4.2504928535873815E-4 778:-4.10665270667101E-4 779:-6.825375240507461E-4 776:-1.7129015935499985E-5 777:-1.2985466388958965E-4 881:0.0031947677005171034 880:-6.055867946667907E-4 883:-0.013068269535295912 882:-0.001554809772805825 885:-0.016183948298420462 884:-0.019905734691801746 887:-0.005536128352622291 886:-0.0150394240905054 889:-0.001626978099282215 888:-0.0023454240996285394 891:-1.6890597676539842E-4 890:-0.001292962859202152 892:-3.0966139417105265E-4 868:1.2056813327174725E-4 869:2.8706418438523444E-5 871:-6.139587259436415E-5 873:-7.526436474906419E-4 874:-0.002609036088064334 875:-0.0044290445270187915 876:-0.00788558855971866 877:-0.012115963457489684 878:-0.010393809966002343 879:-0.00271584274264977 851:0.002469345642902729 850:-1.4229036672309524E-4 849:-0.0025999985576573297 848:-0.0021691464223236945 855:-4.4836545721379763E-4 854:0.0033230619725678518 853:0.005657450090575786 852:0.0030441039119847688 859:-0.0010420846777194682 858:-0.0029951296517630645 857:-0.0030229091246001113 856:-0.0013938812402390739 860:-6.040912286035056E-5 846:-0.0012944186734109714 847:-0.0014263097207403463 845:-3.209367647386408E-4 956:-0.04752520908581268 957:-0.057138480611321915 958:-0.060854953221881655 959:-0.057952117649962304 952:0.0 953:8.888352249177879E-4 954:2.8362412540098436E-4 955:-0.002069731420571612 948:-0.0013420711447666696 949:-2.538092136781612E-4 944:0.04654944620766709 945:0.01897902806984787 946:0.001981372505318604 947:-0.005611673295544553 941:0.0012656499545597544 940:-0.018045391789216336 943:0.05576143893117128 942:0.02980691741186351 937:0.0015444621782102679 936:0.014722490902034932 939:-0.013790750645017991 938:0.009526746583929078 933:-0.020262979071894262 932:-0.03129348468517971 935:0.015270962728389143 934:0.013112242312341678 929:-0.04761359353413565 928:-0.010998901832249816 931:-0.023275998230879516 930:-0.05550603699593593 926:2.9426205320445554E-4 927:5.776524625261099E-4 924:5.741357177076427E-5 925:3.2728691484355224E-4 920:-2.1544157227972713E-4 921:-1.7193556676763316E-4 918:-9.330765963611078E-4 919:-0.002105985101888697 916:0.029990627347856527 917:0.011139971818986646 914:0.02623782487320479 915:0.04203200937830917 912:-0.005142680110323791 913:0.005375590658575628 911:0.004808960884480067 910:0.010868446503510968 909:0.031841032665679246 908:0.024047093807811722 907:0.016213657810241224 906:0.007958276268410969 905:-0.012186270644228588 904:-0.0018201268468916196 903:-0.003846383440564133 902:-0.010592645742243301 901:-0.00937462456597891 900:3.734229964521554E-4 899:2.2548777265471497E-4 898:2.3741918820710685E-4 897:1.0047393432226707E-4 896:4.133777167495097E-4 1016:-0.07351276821558815 1017:-0.06594476819592626 1018:-0.04308499329862142 1019:-0.015626044380157186 1020:-0.0030231609389960233 1021:0.006178600102623885 1022:-0.015229739294108594 1023:-0.032130232113893285 1008:0.0 1009:0.0 1010:-8.047034989659009E-5 1011:-0.0328132198420205 1012:-0.05970981136498529 1013:-0.041150623291904234 1014:-0.043299804923373736 1015:-0.0646108622557627 1001:-0.03177790787901727 1000:-0.011947621320889622 1003:-0.00904208457342296 1002:-0.026129957574447128 1005:-3.273118540909781E-4 1004:-4.429200730901467E-4 993:-0.05728346194423991 992:-0.02923284949052041 995:-0.0579700466572329 994:-0.05077465808475794 997:0.01861586066365529 996:-0.020395898643325822 999:0.009125936992849417 998:0.01978286945906562 986:-0.042709192248489104 987:-0.05511405831745135 984:-0.05790790025552563 985:-0.05955614357399693 990:-0.029401585575042147 991:-0.021233924242404924 988:-0.06292605024457032 989:-0.05548303816353376 976:-0.001140049695079052 982:-1.758643423870122E-4 983:-0.016381362764332285 980:0.0 981:-4.643414706447348E-5 971:0.03493967122676243 970:0.02680927928450817 969:-0.0015446880410948604 968:-0.01864696376527174 975:-0.007752521994772271 974:-0.009482648106164221 973:-0.0026249145091546454 972:0.01902257156988284 963:0.012220754252208739 962:0.01170444834915292 961:-0.010815897839085152 960:-0.029286644139870095 967:-0.03817295370469939 966:-0.059448258188730875 965:-0.05505817740730926 964:-0.021138361450962168 1100:-0.04264944300623765 1101:-0.07365889548930041 1102:-0.05137778386688727 1103:0.05513784224138707 1096:-0.057404102358630284 1097:-0.015963820999310385 1098:-0.014668330411484676 1099:-0.027995210118464245 1092:0.0 1093:-4.579044984659294E-4 1094:-9.622361634656008E-4 1095:-0.05316019008125765 1088:-0.002005854777832449 1089:9.736905889448748E-5 1091:0.0 1117:2.5984552374288606E-4 1116:-9.02658147117499E-4 1113:-0.007187475709268389 1112:-0.010530330427736252 1115:-0.0013109164967381884 1114:-0.0040638608243999145 1109:-0.06539812946286543 1108:-0.011435236529610596 1111:-0.03592862330753423 1110:-0.07752698690071053 1105:0.17862797129588465 1104:0.16551459943987107 1107:0.01053379487511856 1106:0.061050245641354875 1134:0.03131575899760471 1135:0.0069067320178337705 1132:0.19713652403894996 1133:0.16316093104079615 1130:-0.055429884259865385 1131:0.05799995951712695 1128:-0.05911471327092955 1129:-0.09558131327753486 1126:-0.01263744760894642 1127:-0.030218050690367777 1124:-0.049763431607581086 1125:-0.010670618483608391 1122:0.001227015124097513 1123:-0.033646360137284 1120:0.0 1121:-8.741415100200562E-5 1151:-0.03214569048634313 1150:0.0014370120556668183 1149:2.862722243737976E-4 1148:0.0 1146:0.0 1145:3.1763884076721905E-4 1144:3.451747938363258E-5 1143:1.7854865365269886E-4 1142:-7.269771769377074E-4 1141:-0.0015035619428671243 1140:-0.012910053748929664 1139:-0.052004550878418876 1138:-0.06407325057249268 1137:-0.03502609572546811 1136:-0.0037496427437064177 1032:-6.363192350638864E-4 1033:-2.421575948955485E-4 1035:0.0 1037:-4.557211186740677E-5 1038:-0.0012969105036594007 1039:-0.05144849607079529 1024:-0.01870713591113459 1025:-0.0038930630515289196 1026:-0.0163165635501986 1027:-0.024060756439194083 1028:-0.04518290989187269 1029:-0.04584318127908642 1030:-0.031122834964539305 1031:-0.009987244234600401 1049:0.07381569826335967 1048:0.05997692537324696 1051:-0.008850852552605027 1050:0.048983453605630466 1053:-0.05793320027561741 1052:-0.02502982352633181 1055:-0.052660536702895167 1054:-0.0410719468530858 1041:-0.021641852662406195 1040:-0.06004540651149966 1043:-0.051803141563394495 1042:-0.035061667661846894 1045:-0.05448464671030295 1044:-0.059296858278684327 1047:0.009302961113766422 1046:-0.03938335504142132 1066:-0.003906518448003439 1067:-0.056826562336576465 1065:-5.246618114064389E-4 1070:-0.01996395246761358 1071:-0.0346077707950368 1068:-0.06275527224581236 1069:-0.0194224247595376 1058:-0.02412018205517103 1059:-0.00867005872141265 1056:-0.04869918717284513 1057:-0.039419460953927475 1063:0.0 1060:-0.0012365257916133652 1083:-0.04099989788412057 1082:-0.07582171769206064 1081:-0.07535895550159011 1080:-0.029957483056424365 1087:-0.0050222105445825475 1086:-0.01429251786912061 1085:-0.02299743426781793 1084:-0.029933164252760498 1075:0.04438041119605145 1074:-0.03195499789199951 1073:-0.05034814702061815 1072:-0.04006450933593893 1079:0.02024680266576085 1078:0.06832705844520061 1077:0.14149274206411303 1076:0.127428232536359 1221:-0.04390206511810839 1220:-0.06958940509742877 1223:-0.019921839917558828 1222:-0.022082643342068862 1217:0.05365255057977304 1216:0.1492949243182114 1219:-0.08558077735754285 1218:-0.016670944745014023 1228:-7.907665385082355E-5 1231:0.0 1225:-0.0512359356226913 1224:-0.053128650027492556 1227:-2.616616012625689E-4 1226:-0.013366045516188679 1236:-0.05777621792688076 1237:-0.06034858137100256 1238:-0.034396859008700764 1239:-0.04090747519442589 1232:4.43011003438118E-4 1233:0.0 1234:1.9981604292833307E-4 1235:-0.005289482414763157 1244:0.13852769523796413 1245:0.017649554263276242 1246:-0.06581442454575687 1247:-0.09366433943046838 1240:-0.04886463117953345 1241:-0.02413760885327027 1242:0.018708463477821603 1243:0.12282890501773613 1255:-0.0031244396775408313 1254:-0.0366882527938135 1253:-0.054961506213907566 1252:-0.027324597731938245 1251:-0.010117565918722246 1250:-0.02154316172861514 1249:-0.040777252989042605 1248:-0.06820139083026758 1263:-0.009784445301323297 1262:-7.833428317304992E-4 1260:0.0 1259:0.0 1256:-0.0010068141654662557 1270:0.05033150962107615 1271:0.10806686860685334 1268:0.0010559094290598593 1269:-0.004810752249192598 1266:-0.03171040774760222 1267:-0.025477449426518643 1264:-0.06595748959767675 1265:-0.07076995139480809 1278:-0.019260121198076855 1279:-0.013051731297706532 1276:-0.05738103494419214 1277:-0.03184060616048151 1274:-0.0839353248889601 1275:-0.08661065181892237 1272:0.0954217155929421 1273:-0.004704028863027735 1153:-0.010567813910666099 1152:-0.049099318772393846 1155:-0.0411352441654689 1154:-0.013396236939410522 1157:-0.10701132064041753 1156:-0.08110166261885257 1159:0.07576123229152092 1158:-0.04985629643912577 1161:0.11973941191255032 1160:0.20615919735306742 1163:-0.005651296673103146 1162:0.030328556823381023 1165:-0.024232405625605545 1164:-0.03357444675217824 1167:-0.055830627450138504 1166:-0.03558318068388107 1168:-0.045301852192870584 1169:-0.003236507311981309 1170:-5.37028233381289E-4 1171:-7.972928618312392E-5 1172:-1.7773763468908262E-4 1176:3.887673182277717E-5 1177:0.0010906895059509811 1178:6.187673867444394E-4 1179:-0.024386494218409653 1180:-0.05029986519030559 1181:-0.025662092340330393 1182:-0.018803646930039383 1183:-0.05174908166888068 1187:0.1026624979046637 1186:-0.013001776272290395 1185:-0.08923127034437003 1184:-0.09073496583221502 1191:-0.05048188073636843 1190:0.0127749763788318 1189:0.09542762285496492 1188:0.1799066358976518 1195:-0.04276892699588582 1194:-0.018594720765484973 1193:-0.03660021780820669 1192:-0.0599128852507788 1199:1.2364179973111533E-4 1198:1.2515780149221435E-4 1197:-0.03513970956122955 1196:-0.051881012684759475 1200:7.0895790219859E-5 1206:5.015835699470926E-5 1207:-0.01581500515513515 1204:3.131602446374833E-4 1205:5.777145221943054E-4 1210:-0.022127354705110697 1211:-0.058623510674677866 1208:-0.05315015084178663 1209:-0.04435140957753019 1214:0.022579711768017714 1215:0.10295327409481748 1212:-0.08045060401023411 1213:-0.045011470130856636 1375:0.010711072874846213 1374:0.0023609009134567993 1373:6.843654720027605E-4 1372:-4.415964314582379E-4 1371:0.0 1370:0.0 1369:0.0 1368:3.114099465136302E-4 1367:-1.349043229954384E-4 1366:-0.0039322446798956984 1365:-0.049482872957589664 1364:-0.05853028731693448 1363:-0.041250411431302696 1362:-0.018211761282494326 1361:-0.0016090546364591837 1360:0.005607126245724335 1358:0.005588269284992609 1359:0.01197969417515055 1356:-0.00818224964888385 1357:-0.014024678296417122 1354:0.0033930733809315237 1355:-0.008715762554291807 1352:0.024920530287275228 1353:0.025229901844288596 1350:-0.02098113964845333 1351:-6.456952217170666E-5 1348:-0.010040011932402297 1349:-0.028805424210881822 1346:-0.004377671921572047 1347:-0.020437391241435145 1344:-2.725304945152412E-4 1345:-3.73324938798439E-4 1405:0.04882248912300515 1404:0.05076379068008652 1407:-0.004254641192105006 1406:0.03911184548891322 1401:1.1833180421969852E-4 1400:-4.471255045654622E-4 1403:0.03389893374960916 1402:0.005313242698244549 1396:-2.2239965475306844E-4 1399:0.0 1398:0.0 1393:-0.0059186017391019054 1392:-0.029530551887666796 1395:6.359880822498118E-4 1394:9.457881722067756E-5 1388:0.0017605598372658201 1389:-0.017813165778921215 1390:-0.04689943239911987 1391:-0.04484911289369717 1384:0.0012076687705643429 1385:0.015733239356596276 1386:0.028966280001505272 1387:0.02364308592206824 1380:-0.009118114506692674 1381:-0.00576289167662833 1382:-0.020260905576993126 1383:-0.026638428785147293 1376:0.02831489143272156 1377:0.031224674207036947 1378:0.005799812402339139 1379:-0.010411918971305889 1307:-0.009720926143606633 1306:-0.012825691524860015 1305:-0.017753064100271866 1304:-0.040372795931166924 1311:-0.0029667838154234993 1310:-0.034161336111939354 1309:-0.059119813920139236 1308:-0.01573118772513367 1299:0.07774926237781354 1298:0.05415272199155199 1297:0.017796000911893605 1296:0.006162222403303843 1303:-0.05773678729906937 1302:-0.061419584684756 1301:-0.010042988069437032 1300:0.05844211150651122 1290:-0.002443161281834919 1291:-0.014500972758693562 1288:0.0 1294:-0.04643354226326721 1295:-6.029594367414313E-6 1292:-0.05074786569898187 1293:-0.07651020351737384 1282:-0.04703629479481247 1283:-0.00664771037468982 1280:-0.013360457160644379 1281:-0.05881990475755008 1286:0.0 1287:0.0 1284:-0.0020753581952221095 1285:-2.4375587969063586E-4 1337:-0.056921390721651054 1336:-0.0388064530279155 1339:-0.0011666446901376956 1338:-0.010065882420680176 1341:5.7595436025473546E-5 1340:8.763968473493704E-5 1329:-0.006306907003952734 1328:0.011557551452602614 1331:-0.028834070628192494 1330:-0.02467008822631677 1333:-0.0014347370104144442 1332:-0.014935463072533763 1335:-0.01191382264139299 1334:-0.008515115889694573 1320:-0.03765072545554659 1321:-0.06653471324289158 1322:-0.043628132985849874 1323:0.017380705738111343 1324:0.016445387939091987 1325:0.02039789832082993 1326:0.02089112974359046 1327:0.03791117191879336 1312:-3.4927583209443705E-4 1313:3.478977004470437E-5 1314:0.0 1315:0.0 1316:5.123821994574529E-5 1317:-5.769749417009349E-5 1318:-0.00537749685129666 1319:-0.023117737951604454 1494:-0.02881777461359183 1495:-0.03590960732827996 1492:-0.026749572873845467 1493:-0.02451259960295591 1490:-0.01564756870066843 1491:-0.019946198075941696 1488:-0.00375385367768792 1489:-0.009352794533429885 1502:-5.460057028276158E-4 1503:-3.354169021687438E-4 1500:-0.004319383881568679 1501:-0.0031121560302574715 1498:-0.01998973947915893 1499:-0.010702734401137363 1496:-0.03293863255559808 1497:-0.03232479281161379 1479:2.612870224471618E-4 1477:-6.801893632835792E-4 1476:-0.001267517502748209 1475:-0.0012209462942881773 1474:-0.001305269625090341 1473:7.604180226576297E-4 1472:0.0024327013629565565 1487:-0.0028715796845098234 1486:-9.522095418591623E-4 1480:4.522243230105834E-5 1524:-0.008858754323546277 1525:-0.005223055130648851 1526:-0.003235648348505347 1527:-0.0012373829458487296 1520:-0.0030483850754948042 1521:-0.0028153986029988646 1522:-0.007320626498618075 1523:-0.011747046688495553 1528:-9.369805309164214E-4 1529:-3.1065282650966135E-4 1504:-1.1520844344057248E-4 1517:-5.710186824124875E-4 1516:-8.720223981751949E-4 1519:-0.006278681248506523 1518:-0.003929106582656612 1515:-0.0010427687031133758 1514:-2.902054772915296E-4 1424:7.887608057275682E-5 1430:0.005755660060195645 1431:0.02973294065675323 1429:-8.746286186167431E-4 1434:0.01263792752151278 1435:0.002128260396629953 1432:0.04876676234322389 1433:0.0312913759202733 1438:-0.05325951213769972 1439:-0.04627290794851928 1436:-0.007822091431494356 1437:-0.055532740324470184 1411:-0.07867258785886484 1410:-0.08534967793904318 1409:-0.06995973377207526 1408:-0.023849186000856126 1415:0.029515094858926207 1414:0.014421811616843111 1413:-0.006455950681701343 1412:-0.027092375271283643 1419:-0.009844198834046214 1418:-0.022400672216640303 1417:-0.02517251420933143 1416:-0.0011993583675842063 1423:3.2348733271570624E-4 1422:-1.1076296699426725E-4 1421:-0.002187889549678252 1420:-0.0052706715821485015 1457:-9.486608854904831E-4 1458:-0.001047021942622126 1459:0.010129305890838616 1460:0.013225803943112084 1461:-0.006368640142694738 1462:-0.031668671586295855 1463:-0.04407985731072495 1464:-0.05622914053946561 1465:-0.062020782031005244 1466:-0.044327101635602814 1467:-0.04168789813432679 1468:-0.04200582418348597 1469:-0.027866106415141558 1470:-0.012986129590841543 1471:0.0033804573840427094 1441:-8.226554211493289E-4 1440:-0.028068578765182012 1443:0.048485639473873444 1442:0.051926681708274684 1445:0.00680200071162845 1444:0.017225936200387138 1447:-0.006833441286880432 1446:-0.001426715588161842 1449:-0.0028555881151789684 1448:-0.0044888622628635935 1451:3.3058879494202495E-4 1450:-4.1935193169624326E-4 1452:5.382524440652816E-4 1642:3.0039414533941975E-4 1643:4.975739813685583E-4 1640:-0.004762733886253034 1641:-0.0013650609683085778 1634:0.0029661588715283417 1635:5.8627551621802984E-5 1632:0.006004844772538322 1633:0.005921358048968049 1638:-0.007163939663185323 1639:-0.005388103399507703 1636:-0.012790970048721267 1637:-0.010611107066432807 1659:0.04161300154274531 1658:0.04144441104295353 1657:0.0357034335727754 1656:0.0361479575269635 1663:-0.0060168280153281095 1662:0.011842414264389936 1661:0.012062138624535909 1660:0.024188891869749443 1651:1.0571984872686522E-4 1650:-2.2215936955994192E-5 1649:0.0 1648:0.0 1655:0.028671039076522287 1654:0.015758109523756045 1653:0.008087707814330236 1652:8.23226224970873E-4 1608:-0.0011192429928245794 1609:-0.0014772045584707468 1610:-0.004312927519662889 1611:-0.0025696108195126708 1612:-6.093589935804924E-5 1600:-9.210966857066548E-4 1601:-0.0012774298219555976 1602:-0.0016831605385514551 1603:-0.004710850660252129 1604:-0.001994358838323426 1605:-4.6870105377789064E-4 1606:0.0034665431330027367 1607:7.923474024509897E-4 1625:4.19787346817393E-4 1624:2.064657141979742E-4 1627:-7.641451993794973E-4 1626:-2.682277243951628E-4 1629:-1.5366862266101675E-4 1628:-0.0017034107599877882 1631:-0.0027279787683374295 1630:-0.0018048487506922809 1623:0.0 1622:-2.878420678617414E-4 1576:0.0 1577:0.0 1574:0.0 1575:0.0 1599:-7.665842269015176E-4 1598:-1.292778899500375E-4 1597:-6.362327622024848E-6 1557:-5.973710475553198E-6 1556:-5.735129104793927E-4 1555:-1.7623592928703449E-4 1763:0.017139698064140237 1762:0.006231118200155099 1761:-2.5009920112224727E-4 1760:6.134690752440355E-4 1767:0.019671041900069824 1766:0.03747942490268211 1765:0.04014198630252791 1764:0.04078600223400431 1771:0.014247046887562074 1770:0.004352044867380398 1769:0.02684868048118946 1768:0.02297857286736257 1775:-0.030651765964753466 1774:-0.0010384679049603364 1773:0.011664472304996322 1772:0.0216590594429309 1778:-0.012721137077508268 1779:-0.019258942949563002 1776:-0.014877396615965861 1777:-0.004129650226026394 1782:-0.03215794661155589 1783:-0.0048375498890293744 1780:-0.0025801192661675664 1781:-0.04477978824176989 1787:1.8017490344717155E-4 1784:-2.338854592351389E-4 1790:0.00579711922693379 1791:0.023346351130988572 1788:5.671121895086876E-4 1789:-0.0035770155057155265 1728:-3.0128388162528057E-5 1733:-2.2321542348580856E-4 1732:-3.491932071493196E-4 1735:0.010369602215262215 1734:0.003236246790440388 1737:0.054914952457589705 1736:0.03458418147164176 1739:0.06449930902370085 1738:0.05540270781585545 1741:0.01316068816918036 1740:0.04170249809982455 1743:0.029976765922191284 1742:0.01938345628683694 1744:0.04574786049394605 1745:0.04334155954314514 1746:0.04660728461501581 1747:0.01684985581657674 1748:0.0015770975420770971 1749:-0.003819312605499432 1750:-0.014729457876602485 1751:-0.018949162431594384 1752:-0.01637735815358049 1753:-0.04069698100031883 1754:-0.018782083547320822 1755:-0.004236918168070645 1756:-1.2217770935995793E-4 1699:-0.0010589916296235972 1698:-0.0065005517978305016 1697:-0.015220167881827293 1696:-0.02672669804343169 1711:0.08807225307852976 1710:0.06309760992901821 1709:0.045881831756726825 1708:0.023356246280216063 1707:0.006715043408252873 1706:5.41926490534213E-4 1705:2.987521166045566E-4 1704:0.0 1718:0.07538710185702349 1719:0.06062049129597377 1716:0.08181197553953118 1717:0.07327149258301738 1714:0.07550720467344017 1715:0.08875594078617595 1712:0.08914987019162464 1713:0.08167347748633895 1726:-0.010463296908611756 1727:-0.001848849343434199 1724:-0.00916769386399435 1725:-0.020933007287287194 1722:-0.013588539639022285 1723:-0.008703368918007433 1720:0.03231168701688512 1721:-0.003818565488409464 1669:-0.008104581848074319 1668:-0.016613890671041732 1671:8.250457121774957E-5 1670:-0.0014282780394083326 1665:-0.021819799900675178 1664:-0.013808329943741102 1667:-0.01810884794361036 1666:-0.017359549679234882 1677:-1.3491937864330508E-4 1676:-9.270441438450422E-5 1679:0.0018202379600060431 1678:-0.0011274876820732086 1684:0.07635003679272587 1685:0.07841450220531025 1686:0.07654482711690853 1687:0.07267662765248539 1680:0.011392853922030485 1681:0.023594262715705593 1682:0.037685189275882824 1683:0.06220409356591893 1692:0.006692454176283716 1693:-0.013283628970531468 1694:-0.023294380947631897 1695:-0.033665970285426325 1688:0.06513573376129164 1689:0.05498354750923934 1690:0.051467025457868576 1691:0.027193984002975492 1913:-0.09374700682673626 1912:-0.12100091863494546 1915:-0.06202183810281273 1914:-0.06454321289936497 1917:-0.0011299321407245147 1916:-0.03155620163367991 1919:-0.005676807864695953 1918:-0.0014788665636596959 1905:-0.13653754563785325 1904:-0.1150280254295807 1907:-0.13739703557099647 1906:-0.1298575390256608 1909:-0.1447504139114169 1908:-0.13568959071444078 1911:-0.14322224232965342 1910:-0.16605229393689325 1896:4.1982673986479556E-4 1900:-0.002200063987336721 1901:-0.0054420976673331825 1902:-0.018431437652567665 1903:-0.05657053664549844 1888:-0.024089440787181872 1889:0.007881917111926458 1890:-0.007230625485336063 1891:-0.02332439317083503 1892:-0.03419684001757321 1893:-0.03408817663574961 1894:-0.008386131272076004 1895:9.715466932407053E-4 1883:-0.15073442325132655 1882:-0.15716262984269744 1881:-0.129435478056124 1880:-0.11789587063833419 1887:-0.03025422174263345 1886:-0.018585148693144444 1885:-0.0501293533785546 1884:-0.09287939656673637 1875:-0.02891314206775098 1874:-0.012865837639452772 1873:-0.009791339096644175 1872:-0.009206143160280332 1879:-0.1121421011264748 1878:-0.1020831476617609 1877:-0.1028323952187877 1876:-0.07315354126450233 1866:-0.014401038790277593 1867:-0.0021617025091127924 1864:-0.028277386917983136 1865:-0.03049110665678545 1868:5.157795868882819E-4 1858:0.0024495911866857976 1859:0.0061912456289192385 1856:-0.030962354593839617 1857:-0.014018754844444101 1862:0.0011134951120541185 1863:-0.011199643759947031 1860:0.007468683427546091 1861:-0.006472267392889727 1853:-0.060322245641644956 1852:-0.045176213834219665 1855:-0.08250551444094023 1854:-0.06283917408718934 1849:-0.054019781726069034 1848:-0.00825243972191512 1851:-0.04681046669555893 1850:-0.04981339208081347 1845:-0.008947357274547908 1844:-0.009264211068271938 1847:0.0031600700176412787 1846:-0.004152934216195519 1840:1.2935745989654384E-4 1836:-0.020241168110322973 1837:-0.0373695232287241 1838:-0.03011511492810612 1839:-0.00515496115939658 1832:0.01583695592947245 1833:0.006273826468322808 1834:-1.8763201504152805E-4 1835:0.0011622008674474756 1828:0.022573358429207324 1829:0.027112894328123912 1830:0.02619321823428205 1831:0.0186575712509346 1824:0.01777911014437013 1825:0.015204221376805988 1826:0.007887654363135458 1827:0.0057398443579057745 1823:-0.006188998640545862 1822:-0.020314742968308305 1821:-0.008236801044459363 1820:0.01877907043971048 1819:0.023850786352865333 1818:0.0042136904262968415 1817:-0.007286004545983727 1816:-0.004018361449276473 1812:-1.3951354687297788E-4 1811:-0.006533265342255358 1810:-0.03518335702328011 1809:-0.0389803239782857 1808:-0.010916086440892555 1806:-2.1683388426147282E-4 1807:-0.010962737832864292 1804:0.001167854139408234 1805:0.011031307364424772 1802:-0.004639984172978697 1803:0.008475885905654106 1800:0.03981151224749227 1801:0.04028856049060262 1798:0.030218079946636663 1799:0.03055830434284786 1796:0.03304240449143317 1797:0.04356270427054272 1794:0.017857509806831463 1795:0.008005765833284193 1792:0.03337782385493624 1793:0.01951591359044897 2032:0.007462074370382665 2033:0.009324344121498603 2034:0.03817465774372307 2035:0.05734508244619526 2036:0.0216243753621271 2037:0.002044964117587012 2039:-2.95218785751886E-4 2040:-0.00119680874899891 2041:0.009636597749665706 2042:0.04293459587172807 2043:0.07423913737757835 2044:0.08281341695258082 2045:0.05788675292792266 2046:0.032649277212636676 2047:0.045939978602248674 2017:0.04201018202426962 2016:0.04873119316596039 2019:0.044174036865697174 2018:0.03926603180442593 2021:0.05333700626557345 2020:0.03665431388553488 2023:0.06285722306430026 2022:0.06495650261191448 2025:0.011602206723058209 2024:0.027198511321298 2027:-0.0010209373144750144 2026:0.019529769491328494 2029:-0.020073036290546437 2028:-0.015333955340079872 2031:0.003583014718887485 2030:-0.012093740302558028 2002:-0.03982834414776481 2003:-0.03163454664516079 2000:-0.015363404579986289 2001:-0.03061243462715554 2006:0.013297990198645662 2007:0.03131740915925706 2004:-0.02078961315928734 2005:-0.017922284288190916 2011:-3.068551178595264E-4 2008:0.015075655816844188 2009:0.0016306018630495563 2014:0.016244397112313753 2015:0.02809800852610063 2012:-0.0013230098766269871 2013:0.002670653915249654 1987:-0.009838251489924801 1986:-0.0028036904961108583 1985:-0.0027337619980238857 1984:-6.290695889408305E-4 1991:0.030797335529198392 1990:0.008924422617172212 1989:8.225817002339091E-4 1988:-0.009960734985307267 1995:0.06822617493831858 1994:0.046657339312700365 1993:0.023109621979991037 1992:0.02891378276222159 1999:-0.014175159771242654 1998:-5.726650647288161E-5 1997:-1.1102880560971396E-4 1996:0.02917584681944634 1972:-0.011158110901710037 1973:-0.018884693102222617 1974:-0.03321345337078354 1975:-0.02760490779873698 1968:0.004864235749228828 1969:-0.025626712959240048 1970:-0.01530147087069925 1971:-0.036845354543746 1980:0.011576517361797179 1981:5.151725231542123E-4 1983:-6.481231390553223E-4 1976:-0.02874628774951829 1977:-0.008404699180184971 1978:0.008927086993770948 1979:0.019546367189045795 1957:-0.005635136243088597 1956:-2.208414569999925E-4 1959:-0.056280777200144856 1958:-0.018750951105912395 1953:0.0026510676578718425 1952:0.008633550294901962 1955:-3.669516397304785E-4 1965:0.0066264520237615185 1964:0.004544217317390772 1967:0.04664383925656318 1966:0.017434403698065568 1961:-0.057619287204781704 1960:-0.07365703327182678 1963:-0.01764259617381149 1962:-0.0422951880049413 1942:-0.04702085747689593 1943:-0.0442134949529031 1940:-0.0640404468866759 1941:-0.06182854942473485 1938:-0.07706213797547096 1939:-0.047115937838593094 1936:-0.07254203766542733 1937:-0.06773261805042283 1950:-0.0018341035678577607 1951:0.01643707603942612 1948:-0.03509638014026084 1949:-0.033363202649265074 1946:-0.015410770624731463 1947:-0.015265604875413218 1944:-0.02544042920869227 1945:-0.0027201559302200582 1925:3.571166813802263E-4 1924:0.004319870701380511 1923:0.006259822667431334 1922:-0.009220045058675826 1921:-0.04664469324027739 1920:-0.04036684825951228 1935:-0.10786236180879356 1934:-0.11790226275514613 1933:-0.1231465837445433 1932:-0.11717900376707895 1931:-0.06980746992880679 1930:-0.02392244112145739 1929:-0.005259920535041635 1928:0.0 2200:0.0489848506146944 2201:0.03192975196459872 2202:0.015531519908553906 2203:0.004230164124778732 2204:-9.191371615918261E-5 2192:-0.04062423709148718 2193:-0.029841486865671653 2194:-0.010288871690483457 2195:0.016265820441697353 2196:0.03726660151200308 2197:0.04167859727420876 2198:0.044282494909452505 2199:0.05307058235014593 2185:0.03205034505047476 2184:0.01461468093915715 2187:0.03793548851801661 2186:0.041145421062461815 2189:0.02547841491114327 2188:0.024633494651261568 2191:-0.03234664761611226 2190:-0.006261868817878518 2176:0.0020663140566689357 2181:0.0035914035952919893 2180:6.308930939996191E-4 2183:0.011846390705684258 2182:0.01682920291513763 2232:1.2117230636450562E-4 2238:-0.006297347577767579 2239:-0.017352287293656826 2237:-0.002405186830834002 2226:0.017645189873609798 2227:0.022038743865164145 2224:0.0016980246835467945 2225:0.02018296871199788 2230:0.005048132055400885 2231:0.002857069343643233 2228:0.01943614147608663 2229:0.007879947899767306 2219:-0.04999507414835584 2218:-0.03272318317809328 2217:-0.022132413935848458 2216:-0.02235519686668572 2223:-0.02520562880961567 2222:-0.04001105980134741 2221:-0.04524492436613846 2220:-0.04257768791075206 2211:-0.005637869206246791 2210:0.004475546836043348 2209:-5.983275403691574E-4 2208:5.322174740158264E-6 2215:-0.009670972060386817 2214:-0.018216949933071807 2213:-0.01805219116865218 2212:-0.016589750100751973 2268:-0.010144409289316548 2269:-0.017573328561224788 2270:-0.023855654596602167 2271:-0.024671172291115925 2265:-0.001562584074367075 2266:-0.0031982173118018644 2267:-0.0059246586274856565 2260:2.955337335681191E-4 2256:-0.004661976076586252 2257:-0.0028666664318916712 2258:0.002830522994891295 2259:0.002221502227435341 2253:-0.00447798012210767 2252:-0.015591217105368597 2255:-0.004482904502501658 2254:-0.006784824547361832 2249:-0.02991702153498863 2248:-0.01854810751986689 2251:-0.026784906296876448 2250:-0.030683097714622406 2245:-0.028361156566196217 2244:-0.0460294339478999 2247:-0.017432913166184217 2246:-0.022951933797083268 2241:-0.033938214244955654 2240:-0.02751897891123287 2243:-0.047382433718341846 2242:-0.03787151280400319 2302:-1.9446500029710414E-4 2303:-3.49726211587939E-4 2300:-4.6883141636789113E-4 2301:-7.729982026718103E-4 2298:-5.505304316282464E-4 2299:-4.5809288494336306E-4 2296:-5.118352180345481E-4 2297:-8.613983064400552E-4 2295:-5.197599285484547E-5 2288:3.1362804525994075E-4 2287:2.6236211547893754E-4 2286:-6.672527300006216E-4 2285:-0.003226006072880093 2284:-0.004379523805228047 2283:-0.004328775797549157 2282:-0.009059206824660583 2281:-0.009913327596810592 2280:-0.013506126473670808 2279:-0.014791242190628703 2278:-0.01763486880600727 2277:-0.00983611287445243 2276:-0.011292755679995518 2275:-0.008945349909979854 2274:-0.012074708939296548 2273:-0.02290481196090354 2272:-0.026998630376426965 2065:0.0011542192204145034 2064:0.015216481533632495 2067:-4.794306044881999E-5 2069:0.02090135007439264 2068:-0.003358647656307028 2071:0.08132452496894714 2070:0.054159403141044136 2073:0.07084241810942633 2072:0.07810955488339423 2075:0.060690890896603435 2074:0.04629167297527864 2077:0.08347791804826138 2076:0.0675130366506865 2079:0.09792995799510289 2078:0.11959289215017777 2048:0.06127114889665695 2049:0.060721824766456586 2050:0.08045304703680903 2051:0.06048121299960356 2052:0.04089551921310611 2053:0.03242388440978279 2054:0.025718166817692283 2055:0.020831078092415637 2056:0.010361419936322308 2057:-0.006126226583953644 2058:0.015293190825238367 2059:0.027663533399329098 2060:0.04129513427189555 2061:0.05027526444901881 2062:0.07211280519501288 2063:0.05814373046532032 2099:0.06019384236227819 2098:0.03957346076696034 2097:0.013449230884625648 2096:-0.007144951319813498 2103:0.08127721418305149 2102:0.060849901950924254 2101:0.07671775286031013 2100:0.07551038327956337 2107:0.061048777497425114 2106:0.06792978422478771 2105:0.06642768323153075 2104:0.079125697552602 2111:0.025341132620260793 2110:0.02447772034041277 2109:0.02744257608587585 2108:0.04314063616812907 2082:0.029271849131935354 2083:0.0410758353373265 2080:0.06742484657267646 2081:0.024505110660063733 2086:0.030115857646989222 2087:0.03745530860838937 2084:0.02831605273627679 2085:0.021780913110081995 2090:0.09412235727362005 2091:0.05089422888435632 2088:0.0518787401043716 2089:0.08372367349606889 2095:-7.435921472008581E-5 2092:0.007744443021291265 2093:0.0012723206252805526 2133:0.03444265122089545 2132:0.03930024567409633 2135:0.011696033100012134 2134:0.019037075844873637 2129:0.08032838443385187 2128:0.06004744968100072 2131:0.06294433962706311 2130:0.08965784776308858 2141:0.0514606377343083 2140:0.02955004181790382 2143:0.06856805305354985 2142:0.05190466264526219 2137:0.01695360354329318 2136:0.017959996109424194 2139:0.02733812208814474 2138:0.025260440200297336 2116:0.0821652917266121 2117:0.1016880763374387 2118:0.08426270748143792 2119:0.04700744000875993 2112:0.023346792095753858 2113:0.02412576194310406 2114:0.025056151249462453 2115:0.04391616078907375 2124:-0.004804519690750791 2125:0.017699173798829095 2126:0.0430641433413652 2127:0.04484351811472174 2120:0.007149508605654898 2121:6.586122659017895E-4 2123:-1.8732811321771705E-4 2167:0.03860070561719787 2166:0.015894852437287464 2165:-0.005396174959691391 2164:-0.016690798214752892 2163:0.004869795488886459 2162:0.017169115671941616 2161:0.029468044133897572 2160:0.037769406251803396 2175:0.012014221275119844 2174:0.03935990103214099 2173:0.06615254094593061 2172:0.07196720889056667 2171:0.06477922782236835 2170:0.0472760329785826 2169:0.06534032838650851 2168:0.03973280241016632 2151:0.0 2148:0.0031738555451929435 2146:0.06319536320173874 2147:0.019815102461886395 2144:0.08941459306642072 2145:0.09356960965017226 2158:0.05410231905015394 2159:0.05192514275207864 2156:0.039522970778091575 2157:0.056009863789650935 2154:0.028337287929497867 2155:0.029399808797607313 2152:-3.1642976982020586E-4 2153:0.014391995491984551 2443:0.0230934897637511 2442:0.023630846616783954 2441:0.03440798737634091 2440:0.03540489102001158 2447:-0.004015008313141038 2446:0.005978250616642188 2445:0.012411845375830784 2444:0.018513872590704798 2435:0.001683538766287789 2434:-1.1155012570488305E-4 2433:0.0010305218802471527 2432:0.0017079455438749616 2439:0.030216399918512795 2438:0.029152830673119124 2437:0.01737163157511325 2436:0.005936251856358144 2458:0.002413941388365122 2459:0.00891908541203128 2456:0.0 2457:4.64637109794561E-4 2462:0.031542910401651546 2463:0.03458829355692246 2460:0.01216534641806319 2461:0.023321613868045654 2450:-8.694379006756218E-4 2451:-1.2642714398619233E-4 2448:-0.004650320539337481 2449:-0.0015461557632270423 2455:0.0 2473:0.007163304850407334 2472:0.02710967137171947 2475:-0.03689206915596002 2474:-0.028047126366136932 2477:-0.01955032341207083 2476:-0.027028173349009928 2479:-7.785481805176684E-4 2478:-0.004925770195960465 2465:0.047523944510882724 2464:0.04412247414896763 2467:0.062486717933509496 2466:0.051340213480885695 2469:0.052696799235205295 2468:0.053004241088419494 2471:0.008583575736679522 2470:0.03857746014355023 2488:0.03609490115292236 2489:0.056120529451914536 2490:0.05466841378736075 2491:0.05434543872902172 2492:0.05082172394832752 2493:0.049548868169038716 2494:0.0355054089396178 2495:0.030731448153165957 2484:2.0777807986388473E-4 2485:0.003233789784587967 2486:0.010192327105863408 2487:0.026288746771762753 2511:1.831932680635446E-5 2507:-7.80901915398007E-4 2506:-0.008990530279466879 2505:-0.03862310823981284 2504:-0.060885352942774834 2503:-0.06092125498607773 2502:-0.017922303791791716 2501:-0.009177200429770061 2500:0.012313522680786927 2499:0.004695727484982354 2498:0.04538136317300741 2497:0.033517607760516946 2496:0.010433654994299461 2526:0.03251520296625602 2527:0.012087563885513589 2524:0.04284870208896893 2525:0.039949403697159214 2522:0.04840929961011996 2523:0.05633481209639374 2520:0.0406920250949121 2521:0.04028362238052962 2518:0.04890567617718273 2519:0.04055586974259286 2516:0.04408091971101697 2517:0.06093478098701849 2514:0.02284747257598137 2515:0.039091918093299566 2512:-2.326883965124983E-4 2513:0.007979182491189571 2541:0.010631469413787903 2540:-0.0011073198350064263 2543:0.05082560379593506 2542:0.03561376876604921 2536:-2.958465383937668E-4 2539:7.057008033702353E-4 2533:-0.05324475745355002 2532:-0.049320982920016174 2535:-0.005163496911002853 2534:-0.022821162113943763 2529:-0.008363611753810535 2528:0.005942089074343694 2531:-0.026396845212623688 2530:0.008236269558815035 2556:0.020660314656089685 2557:0.02085269134521167 2558:0.035559848487873975 2559:0.004308467990224547 2552:0.05053996949065354 2553:0.0565012064175344 2554:0.04058453227457603 2555:0.04775814289841147 2548:0.013528739650965843 2549:0.008372873902257306 2550:0.02894604794192309 2551:0.038911672710626136 2544:0.049701049021041506 2545:0.049694113269535496 2546:0.029799781306621 2547:0.024676660473100676 2306:-0.005503623772298328 2307:-0.00976706463845474 2304:-5.661924823996471E-4 2305:-7.576879955980699E-4 2310:-0.009285922261501184 2311:-0.0033214098879497922 2308:-0.009503887457679647 2309:-0.009529660247860616 2312:-1.5529178872124576E-4 2335:-0.004436201560055973 2336:-0.009124862819398873 2337:-0.009124862819398873 2338:-0.007177267764414016 2407:-2.2629031247834163E-4 2412:0.0013071237431808765 2413:9.635841102423645E-4 2414:7.52351920516471E-4 2415:3.109936860379376E-4 2408:-6.356313217452027E-4 2409:3.6247411179816925E-4 2410:9.262564959477928E-4 2411:8.729987247222879E-4 2417:9.285477904735754E-5 2416:2.885370802949839E-4 2418:3.819483736861412E-5 2431:0.001730682008941049 2430:2.2215936955994192E-5 2750:-2.2817359724967522E-4 2751:0.023895128585492403 2748:0.013537019895286322 2749:0.007819143755378259 2746:0.03642063065939193 2747:0.04112657125449347 2744:-0.04653753364183985 2745:-0.013910368609553858 2742:-0.028098703671461906 2743:-0.022387427322224977 2740:-0.04110796288622293 2741:-0.04848905428050547 2738:-3.3086489349626335E-4 2739:-0.017724914481603245 2736:-2.2660957751303483E-4 2737:0.0014964107180995222 2735:2.2257459852838014E-4 2733:-3.52420288221113E-4 2732:-4.5310774847318454E-5 2731:-1.040060313886269E-4 2730:-0.0031543123857722816 2729:-0.013515620490423612 2728:-0.02538486022643326 2727:-0.028985248869062674 2726:-0.04229670311745688 2725:-0.024731391830532877 2724:0.010649185054558202 2723:0.029130250988875773 2722:0.04335460478645493 2721:0.018714112167807523 2720:0.04386506672201516 2716:-0.03146142963311305 2717:0.00419454810414578 2718:0.03830161585659454 2719:0.07647316535358634 2712:-0.058822621240901006 2713:-0.07269820262758551 2714:-0.05213997564039373 2715:-0.018371046388837305 2708:-5.118734280415934E-4 2709:-5.55165201846005E-5 2710:-0.009941129962588979 2711:-0.02848586250894431 2707:-3.018793512750344E-4 2701:-0.01268323023877555 2700:-0.02037467884413453 2703:7.190441749830056E-4 2702:-0.004606368021693095 2697:0.007455190776405915 2696:0.028259147599842115 2699:-0.026819458022089585 2698:-0.02174368252693515 2693:0.05273993248446372 2692:0.06981587421574073 2695:0.031116763161153332 2694:0.04960695446013026 2689:-0.017362940632364446 2688:-0.03777340902748091 2691:0.060029820928906234 2690:0.021516168498824588 2810:0.0415697136619081 2811:0.06467457724388437 2808:0.047488220452752285 2809:0.030331347451531824 2814:0.0038291711722615706 2815:-0.003966682589626397 2812:0.03603017549568045 2813:0.017760608302074335 2802:-0.0013349939985609059 2803:0.016836524636957024 2800:-0.08688519011582435 2801:-0.04030227658782592 2806:-0.031539084483034205 2807:0.01017335613392744 2804:-0.009465863284420327 2805:-0.04093994977483484 2795:0.004433039945432235 2794:0.01375325097952751 2793:0.012778487432416356 2792:0.005285352451155504 2799:-0.09062000563508649 2798:-0.07454097982862623 2797:-0.04488661665260439 2796:-0.026174058021486434 2787:-0.0032321980338850856 2786:0.001236621961447316 2785:0.008201031133278094 2784:0.01137622721092604 2791:5.497233937328017E-4 2788:-5.886595315728347E-4 2776:0.015061383722718482 2777:-0.007709462065928581 2778:-0.02054801655709084 2779:0.005236573894154332 2780:0.005551646768111466 2781:0.01609408257313522 2782:0.0432005014161577 2783:0.02624064938608266 2768:-0.024697360279455217 2769:-0.04388199015252588 2770:-0.04493140984004615 2771:-0.045465119562308726 2772:-0.0365426332614618 2773:-0.014011145802088393 2774:0.021950980676113178 2775:0.045149199751052464 2761:-2.617974496774814E-4 2760:-9.666367372707243E-4 2763:6.409637904134075E-4 2765:0.005028716927915491 2764:0.001192676452272141 2767:-0.00499323391663998 2766:0.005733281149390044 2753:-0.00605342960610714 2752:0.004643937843621725 2755:-0.008520090808641936 2754:0.0028851299254369265 2757:-0.006998217663909513 2756:-0.011311405792271257 2759:-0.0012754094862976525 2758:-0.002210267484950859 2615:0.026680528117208013 2614:0.04945562817070157 2613:0.04133314186207298 2612:0.03242109521119731 2611:0.050837488427396965 2610:0.05092915497617287 2609:0.07431066243589622 2608:0.048769770571705916 2623:1.692317585013565E-4 2620:-8.740819540975629E-5 2619:-0.005134368029137298 2618:-0.027115104308071774 2617:-0.04266936416625727 2616:-0.009073807368631743 2598:0.032950000532885854 2599:0.03684753238754831 2596:6.357655708183547E-4 2597:0.01332931455135831 2595:1.28237279530722E-4 2592:-4.5838590400034773E-4 2606:-0.08774840867410347 2607:-0.02192791294592459 2604:-0.07710534550774871 2605:-0.102557958442052 2602:-0.028935294335635048 2603:-0.03353266144312559 2600:0.02948768030610182 2601:-6.641970300837206E-4 2581:0.04854453366918495 2580:0.04796827536700223 2583:0.03846805714066445 2582:0.03248704398900129 2577:0.007652170823638696 2576:0.008673794219203682 2579:0.006590849625899634 2578:0.0058542797789520856 2589:-0.06131991888186098 2588:-0.029732313237936826 2591:-0.010305776378910496 2590:-0.04186051413943639 2585:0.0406826933869624 2584:0.02642738815267982 2587:0.018598284236597967 2586:0.043387727675025585 2567:-1.9488977117833753E-4 2560:-0.05074304256543163 2561:-0.060596785532060174 2562:-0.038905661647071973 2563:-0.01019720128120625 2572:0.04809804959185316 2573:0.02568599575717877 2574:-0.001567313472938673 2575:0.0016083296473420228 2568:-0.001439629706743691 2569:0.01164155858289962 2570:0.04067926275826905 2571:0.05227280504388518 2675:5.021340436914299E-4 2674:-0.006536976919630212 2673:-0.008515856849769582 2672:-0.004643149425086463 2679:-1.317770997442848E-4 2683:-0.03213236401917306 2682:-0.004874017344796182 2681:6.372136254465833E-4 2680:-3.5250418391295817E-4 2687:-0.06148088705641804 2686:-0.08908410073976017 2685:-0.09570026763768928 2684:-0.07079833103769377 2658:-0.13141227728074908 2659:-0.11928048188993498 2656:-0.05371482051064045 2657:-0.10432041648925135 2662:-0.054862570228514096 2663:0.03849227717851506 2660:-0.10789017995471596 2661:-0.08610279890478008 2666:0.05348081368298765 2667:0.04501569599145152 2664:0.07083308819913754 2665:0.0770283796274816 2670:0.023115254136934795 2671:-0.004052205607016846 2668:0.055550235676536275 2669:0.04414819765081907 2641:0.05896828870083526 2640:0.042119002718595845 2643:0.01540532921438422 2642:0.043706117191918005 2645:-0.017602669957557257 2644:-0.006091022304355126 2647:-0.002034355449204367 2646:-0.014594914446109811 2651:1.0859174728198037E-4 2653:0.011037132334843231 2652:0.0010434865986031598 2655:-0.021303460797013778 2654:0.004612529922561576 2624:0.001556728917971098 2625:0.016319849228684697 2626:0.019508673775722404 2627:0.007535064859441423 2628:-0.01580895658418506 2629:-0.05418431380759738 2630:-0.0933090272178761 2631:-0.12625016853613777 2632:-0.1456576028268526 2633:-0.15625622897979266 2634:-0.12593481292972816 2635:-0.02161400375368889 2636:0.07488397355369691 2637:0.09318474710976614 2638:0.08259754619460852 2639:0.06496816368587334 2989:0.011867266546360262 2988:0.001761099389956306 2991:0.05121581221264245 2990:0.0391039246106465 2984:-8.136013872302912E-5 2981:-0.01248765988751823 2980:-0.017998291512214926 2983:-0.0019423412685690956 2982:-0.007738115597979445 2977:0.015771966480817554 2976:0.008439813354359381 2979:-0.011208688772598879 2978:0.007819575706601715 3004:0.01654434602707214 3005:-0.001972380835527826 3006:-0.018456284440500986 3007:-0.01846182149236753 3000:0.006540056492625782 3001:0.011614926727438333 3002:-0.008160331538684425 3003:0.002887850925381869 2996:0.026537586565900474 2997:0.03158913945816312 2998:0.0052484859842231255 2999:0.019086076962784294 2992:0.05583841972253414 2993:0.054740795194419094 2994:0.019719956580583373 2995:0.024933715124237133 2959:0.0 2956:-8.346978734349378E-4 2955:-0.0024066741962164395 2954:-0.012746549882645505 2953:-0.02094679477262822 2952:-0.011855079391206605 2951:-0.00581221248706306 2950:0.01663365726069637 2949:0.037224694164877135 2948:0.038961585375666026 2947:0.007685517616915937 2946:0.010543454514089976 2945:-9.190844453679303E-5 2944:-0.009108739708692316 2974:0.010386543495448593 2975:0.016994932933953048 2972:-0.009541798459161003 2973:0.003883951443356313 2970:-0.017719587736548328 2971:-0.012477070204627145 2968:0.018597237291707883 2969:0.008528317401278232 2966:0.021620178453815152 2967:0.026093945152055174 2964:0.05762004866352928 2965:0.04339984184240867 2962:0.04877458261326782 2963:0.05674890573876185 2960:0.005399529489434559 2961:0.0232386466478008 3049:0.021032722042896558 3048:0.014573059867994358 3051:0.04744434795377586 3050:0.03623201595920249 3053:0.05844677411759633 3052:0.054846205394165765 3055:0.05449789050159192 3054:0.06305980547803718 3045:-1.5652977445129916E-4 3044:4.162089617310306E-5 3047:0.007767519841084054 3046:0.003606376266689215 3064:-8.570655001767959E-4 3065:-1.9808784637770807E-4 3056:0.039251613270314276 3057:0.021835545038679818 3058:0.008087313686285033 3059:-0.009878098361784719 3060:-0.01628295938779611 3061:-0.01351801690055009 3062:-0.01406811921136195 3063:-0.007881336226978798 3019:0.034528305946019834 3018:0.020679511554122308 3017:0.005207312081560521 3016:4.617131429811385E-4 3023:0.05567514687032321 3022:0.07017165361463382 3021:0.06875908489030824 3020:0.04991961765476667 3011:-8.15092048476676E-4 3010:-0.0028729058271697114 3009:-0.0069933478304444584 3008:-0.01452751097084982 3012:9.37168330866542E-5 3034:-0.021746907007326923 3035:-0.009754891634222074 3032:-0.01958062442568094 3033:-0.026641661260511016 3038:-6.048057384357597E-4 3036:-0.002865003749833292 3037:-0.0012480032459372564 3026:0.04178088176087449 3027:0.04918499221520678 3024:0.05939094976308241 3025:0.057753751721086294 3030:0.01561969538682243 3031:0.00416781371237643 3028:0.030435379724595587 3029:0.01746886537278349 2852:0.00508292412771086 2853:-0.014520096778318566 2854:-0.04300062664775281 2855:-0.10298587024913067 2848:0.007393501164049129 2849:0.0242649956487153 2850:0.03106686114657456 2851:0.021005320193860786 2860:-0.09869364585308868 2861:-0.029065084165589512 2862:0.03382086838435923 2863:0.05127353137029332 2856:-0.1334539309128116 2857:-0.12315299423712067 2858:-0.1349917760116818 2859:-0.11609514705064207 2869:0.002915820076348329 2868:0.04388229552465912 2871:-0.003826239412713996 2870:-0.01741789318716407 2865:0.05248527819897074 2864:0.05284287215574819 2867:0.06966976164151914 2866:0.06000783801899158 2877:0.0463224907954355 2876:0.01095505137283147 2879:0.060946169768909965 2878:0.05247775653633068 2872:-3.3852899690069063E-4 2875:0.0 2822:0.022218099111442086 2823:0.0041180743657246175 2820:0.007364118285602734 2821:0.025873359317460327 2819:3.0841797961923345E-4 2816:-7.248062214452221E-4 2830:-0.1059992012089229 2831:-0.07884005314449076 2828:-0.1521578783213379 2829:-0.12705737378865095 2826:-0.06593219971294592 2827:-0.12283556052835477 2824:-0.010393559514949842 2825:-0.027843715574356245 2839:0.06272637300756878 2838:0.045242483892601784 2837:0.053691139578253395 2836:0.041190084225330624 2835:0.030779339883810482 2834:-0.006151398111577978 2833:-0.05014956686246498 2832:-0.09052682705447938 2847:4.794306044881999E-5 2846:-6.29890216930574E-5 2844:-4.367830323027234E-4 2843:-0.005083765679983843 2842:-0.004518297346106864 2841:0.022211196564499668 2840:0.05275902948463345 2912:-0.007490037367421539 2913:-0.03221655100241968 2914:-0.028944621141518096 2915:-0.02242950324175697 2916:-0.00796164116553779 2917:0.002978502389750324 2918:0.033463712611319744 2919:0.042094435071864444 2920:0.06450654749598565 2921:0.0448188576712254 2922:0.05067889275125062 2923:0.018965535043106736 2924:-0.01210789748370052 2925:-0.021715415753758613 2926:-0.012125902782467135 2927:-0.0015787511224832306 2928:-2.835211417578588E-4 2931:0.0 2933:0.025957347786373337 2932:0.005969410913334471 2935:0.06645286078879079 2934:0.05375716565646733 2937:0.03358869267416823 2936:0.05849232830267143 2939:0.027439460739753348 2938:0.024656452835679434 2941:-0.022364289354914337 2940:0.018530636565860913 2943:-0.006106665975963387 2942:-0.01198448361462687 2882:-2.0677319781182648E-4 2883:-0.03905544245519848 2880:0.04728419073380478 2881:0.01905700994373192 2886:-0.07827270371688497 2887:-0.060089125165072255 2884:-0.0510000997175807 2885:-0.0753296595140489 2890:0.03636593966741176 2891:0.04886880671131301 2888:-0.054666966576816335 2889:-0.014776763075973117 2894:0.047758584914835915 2895:0.06086189013202619 2892:0.04798599264361423 2893:0.06715354240733522 2899:-0.003103724165889966 2898:-0.015743100422388794 2897:-0.013174881719607954 2896:0.01706253706258759 2903:0.0 2900:-4.8642572720418643E-4 2907:0.07186777941078143 2906:0.06542943838381664 2905:0.04623751639948843 2904:0.009105445645270828 2911:0.02419949793793179 2910:0.029467238749243826 2909:0.038916515900257784 2908:0.056862216456554544 3284:0.0429959998231297 3285:0.04474587013757504 3286:0.01240261778343547 3287:-0.0045669131172137375 3280:0.016129709531672025 3281:0.028905476653164754 3282:0.027663677625596895 3283:0.029166034369749086 3293:-5.292493170274465E-4 3294:0.003409914539529864 3295:0.012526325827446788 3288:-8.8984061456345E-4 3269:0.0019650246819554696 3268:0.007599617680575081 3271:-1.7153533055658496E-4 3270:-1.2095937142811081E-5 3265:2.2223082450038392E-4 3267:0.005887223800826577 3266:0.001997922719700431 3277:-0.013515539136185584 3276:-0.031871457577551 3279:0.022930455269044654 3278:0.030743743412795496 3273:-0.037010028299774636 3272:-0.013827502318136186 3275:-0.038531547027970126 3274:-0.03824107333178082 3316:0.0013880420767414634 3314:0.024553040548883253 3315:0.002711449865748792 3312:0.07379498093623234 3313:0.07528454627885843 3326:0.0013478111205660038 3327:-0.010865810031003838 3324:0.015410403596901417 3325:0.013018258490623328 3322:0.0018540687526058743 3323:0.011637660740989259 3320:-5.507072561663222E-4 3321:-5.182553930024653E-4 3303:-0.0793476167543207 3302:-0.0517417331241652 3301:-0.03411474306382379 3300:-0.006837311914344263 3299:0.005553956436301922 3298:0.01319736736384284 3297:0.01926645481157309 3296:0.016373054131530156 3311:0.037543733328132586 3310:9.607665755280014E-4 3309:-0.006848012776773411 3308:-0.04575080956414513 3307:-0.04397945952066431 3306:-0.06465439824416012 3305:-0.09834367334869326 3304:-0.11287840999578352 3216:-0.03142086443875743 3217:-0.042751603872922796 3218:-0.052045815487084895 3219:-0.061769635790672614 3220:-0.05707953684083517 3221:-0.04951846269235527 3222:-0.03785114158693928 3223:-0.02482890707250564 3224:-0.011579013911824065 3225:-0.0034811658557129593 3226:-0.0037451782405107906 3227:-0.00455351642682976 3228:-0.001608320940092128 3229:-8.338592169396226E-4 3230:2.9730173623695164E-4 3231:0.0 3201:-9.857916315542494E-4 3200:-0.0010913271702749242 3209:-3.571290256332582E-4 3211:-3.441339125582548E-4 3210:-3.2821481678853294E-5 3213:-0.009459378525096524 3212:-0.003449414949426802 3215:-0.021186655854351626 3214:-0.01470915164826532 3250:-0.03159034407529983 3251:-0.024509021862260415 3248:-0.06019469228600227 3249:-0.05295765945643729 3254:0.005719018611616101 3255:0.005833002139462266 3252:-0.02595171731184088 3253:-0.010167865010238942 3258:9.239464121223279E-4 3259:-2.9265495957476795E-4 3256:0.0046259823915628375 3257:0.004614569313587069 3260:-5.746517434305795E-4 3261:-1.5342397862534417E-4 3239:0.001430487862033973 3238:7.559574425643973E-4 3237:-2.825418439934857E-4 3243:-0.031344282631556364 3242:-0.01862016723370188 3241:-0.009837098223533366 3240:-0.001646124004338998 3247:-0.06641714506897332 3246:-0.06824302400398716 3245:-0.054216936837640034 3244:-0.04399693190555501 3165:-0.0037428031375445394 3164:-0.003116772139725823 3167:-0.004258412820670053 3166:-0.005201213964450739 3161:-0.00549214353724819 3160:-0.0032219078244955447 3163:-0.005394489233951592 3162:-0.0072128384998671035 3157:-0.004194767904035691 3156:-0.002195687618961099 3159:-0.0017457392587016374 3158:-0.0024255514054026526 3155:-1.987988390841922E-5 3199:-0.001054094130414495 3198:-3.1418237446903703E-4 3197:-6.935575400384454E-4 3196:-0.0031895825891277447 3195:-0.013631534740081802 3194:-0.024233817073698 3193:-0.02198799256210941 3192:-0.022702462475475367 3191:-0.026711064904960245 3190:-0.026068145257046798 3189:-0.01907558703808589 3188:-0.013604022725727702 3187:-0.006452974301330214 3186:-0.007114662642375307 3185:-0.007374825759338763 3184:-0.0020986383703239706 3182:-1.172180770138849E-5 3183:-7.206442012894747E-5 3181:-3.399360243256859E-5 3172:-8.888090448529821E-4 3173:-5.920779942112922E-4 3170:-7.309921217864727E-4 3171:-4.170640458868694E-4 3168:-0.0014283928335838145 3169:-0.001077930834983891 3089:-0.0019831919942207006 3088:-0.001793932915135884 3091:-0.0018598671812885491 3090:-0.004054862919903097 3092:6.81467869471512E-5 3080:0.0016504289301497335 3081:0.0014394582752619634 3082:5.688915915348736E-4 3083:-6.321662513777969E-4 3084:-8.842356193538954E-4 3085:-6.858195150637814E-5 3086:1.3477809294780018E-4 3087:-0.0015027344807553862 3074:4.321491889871335E-5 3075:2.988650839420347E-4 3076:3.7176743830352716E-4 3077:0.0010625287879768078 3078:6.594953949460633E-4 3079:4.3884205088781187E-4 3135:-6.484667402792241E-4 3134:-2.961500156109702E-4 3112:-5.371504460486863E-4 3113:-7.753545576320816E-5 3110:-5.541771313851909E-4 3111:-7.854694578174411E-4 3527:0.004642679222678529 3526:0.07091992448968103 3525:0.12716555215591102 3524:0.11817594767472943 3523:0.0847071409235091 3522:0.10631083292492112 3521:0.11884668275576005 3520:0.08528247067671273 3535:0.023825352910719647 3534:0.046601596022673136 3533:0.07229115297082159 3532:0.07490672657681995 3531:0.1107108212071713 3530:0.09048261107669635 3529:0.03151760585637362 3528:-0.005423787415192989 3543:7.159348641918945E-6 3540:-0.0029396300016825924 3541:-9.090787398540604E-5 3538:-4.117009149164168E-4 3539:-0.003594807383980818 3536:0.015391341182173024 3537:0.0014212640950803802 3550:0.09865645958449216 3551:0.08124546233478554 3548:0.07206304898584008 3549:0.10740050994132072 3546:0.01842344047152837 3547:0.03813658072155251 3544:-5.158425901876307E-4 3545:0.001953595422933488 3557:0.07550184631925384 3556:0.021149088052206444 3559:0.11154635539170911 3558:0.11917436682991528 3553:0.05840186688469256 3552:0.043505145714124706 3555:0.012145658183241228 3554:0.04175003043253343 3565:0.005601811339606908 3564:0.019173116220596143 3567:-0.011221882522737859 3566:-0.008714581567502181 3561:0.061810666343445925 3560:0.06785834723739861 3563:0.020136932137053823 3562:0.023499228860848962 3572:-6.956409049681204E-4 3573:-0.0011273914408485043 3574:-0.0017565912622157852 3575:0.018833919788077892 3568:-7.465704833373523E-4 3569:2.593123258218742E-5 3580:0.015551092786828088 3581:0.016043811949477287 3582:0.03958295408096427 3583:0.03540117133001814 3576:0.055744231902496985 3577:0.08813540506793627 3578:0.10286250092378793 3579:0.07605054982217604 3459:-0.001241806902507498 3456:-7.38726259781315E-4 3463:0.0010177919502825964 3462:-0.012237921336468947 3461:-0.008002489859661368 3460:-0.004614305993026892 3467:0.06791688905524287 3466:0.06877563447782165 3465:0.03647630769191445 3464:0.015318843619204691 3471:-0.02311035406411764 3470:0.10621761292638919 3469:0.13781558312135728 3468:0.09326241507108526 3474:0.08855337880958986 3475:0.039676476600421715 3472:-0.06058937517906157 3473:0.02482853323516534 3478:-0.012746864088764354 3479:0.001824337402034504 3476:-1.345604932427495E-4 3477:-0.004109990461831746 3482:-0.006326035798336246 3483:-0.0022678991277189043 3480:-0.006959617340574556 3481:-0.018425982302617053 3487:-9.894423914596335E-4 3484:-0.0018256683623837622 3485:-1.9528268729088113E-4 3489:-0.0060080644549167 3488:-0.0039059051495922603 3491:0.01520209141455597 3490:-0.0052765429834944755 3493:0.08929866728404787 3492:0.057906871147561864 3495:0.08465326465326409 3494:0.09131530704623866 3497:0.163065382167742 3496:0.1285424674936798 3499:-0.006822782873154708 3498:0.09082221098091547 3501:0.03874640978507667 3500:-0.021037077576926702 3503:0.07020026876941758 3502:0.07528746641160432 3504:0.03778996115065901 3505:0.026126734344251126 3506:0.03505586202223425 3507:0.02007208558808214 3508:7.071572669545044E-4 3509:-0.009734501275346981 3510:-0.006734615382363489 3511:-0.0019739627439251555 3512:-0.002473973924317031 3513:-8.181691419901151E-4 3515:-5.886364647266442E-4 3516:-0.0018952139181610233 3517:-0.002106761993564788 3518:0.01604270292201393 3519:0.039766477304411185 3406:-2.6742931468821826E-4 3407:-0.0051248853491374195 3404:-0.002000626313901195 3405:-0.0072073096185504264 3403:-4.1994598700735586E-6 3400:-0.00805088258027889 3401:-3.006374605546984E-4 3398:-0.027727914021082063 3399:-0.019951486099730922 3396:-1.75463677882014E-4 3397:-0.012022368399046305 3394:-0.011108637426487489 3395:-0.013777896138889235 3392:-0.006880477913540415 3393:-0.019711071002240847 3423:-0.023982704835538937 3422:-0.015110470976095282 3421:-0.004458056350022452 3420:-0.016555119118903807 3419:0.01719155973026648 3418:0.010218874167371576 3417:-0.07190572279780882 3416:-0.1493787950220756 3415:-0.05246136842614923 3414:0.026753370206706255 3413:0.011745096308484106 3412:0.012616760681711827 3411:0.030436373553182235 3410:8.203206496737347E-4 3409:-0.013741157488037422 3408:-0.013634449411810225 3436:-0.005353288350542429 3437:-0.0050066003421073 3438:0.01930838201759485 3439:0.04417184991493692 3432:-0.00438927199283436 3433:-0.0068716451442718575 3434:-0.0052763245207082055 3435:-0.001392447361731393 3428:-0.00436749270219357 3431:-5.092571292619943E-4 3424:-0.025368587087127973 3425:-0.0333114847550205 3426:-0.021846126323338773 3427:-0.013077215398174774 3453:-0.03049872901044461 3452:-0.026282282218736647 3455:-0.0075038071621017 3454:-0.018675397549411474 3449:-0.001391106535354116 3448:-2.494488636153081E-4 3451:-0.02239942223508535 3450:-0.024774259594801926 3445:-0.019558563836118037 3444:-0.11727394326888489 3447:0.03199604313948213 3446:0.06944975464761396 3441:0.06377087168418183 3440:0.04441826805498237 3443:-0.06680930655809612 3442:0.06524230013812057 3338:-0.020924685068792023 3339:0.02795945945724949 3336:-0.06251354653284463 3337:-0.0451910584351577 3342:0.014803030138260922 3343:-0.0014537873286340087 3340:0.05768528145168175 3341:0.055507352765181005 3330:-0.0822190822969729 3331:-0.09386048715593 3328:-0.03439087634423565 3329:-0.07142901516716439 3334:-0.14248999085495492 3335:-0.09056859112313358 3332:-0.16013621429815075 3333:-0.18465637324173223 3355:-0.027767657025941396 3354:-0.01699616347880761 3353:0.0016086146546929686 3352:0.007522069524736793 3359:-0.08128778005647477 3358:-0.06033495451831716 3357:-0.04802270370552714 3356:-0.033065616416128166 3347:-1.3829162972850965E-4 3344:9.024645143517528E-4 3351:0.010013263254000381 3350:0.003372766185852271 3349:-0.001218105481649963 3348:-0.0020612783000414645 3368:0.016684056507567765 3369:0.02343380023831746 3370:-0.0019022546257683908 3371:-0.012035339424981487 3372:-0.004164224225542914 3375:-1.5086663893694344E-5 3360:-0.15647141543193227 3361:-0.1601325347673671 3362:-0.1188631993838575 3363:-0.04645840319782576 3364:-0.025010995043609013 3365:-0.01868750838392882 3366:-0.008047217486301264 3367:0.010402680222854253 3385:-0.02771927577336063 3384:-0.014953802331699746 3387:-0.059442986421052564 3386:-0.023902452455435867 3389:-0.12829970377913572 3388:-0.1622263806495709 3391:-0.01255416529034555 3390:-0.04164221556767455 3377:-0.005552939040104251 3376:-0.0011564442734989175 3379:-0.0021609421401652716 3378:0.0016344661050867204 3381:-0.009470936310994396 3380:-0.008987302213371826 3383:-0.014340226403325017 3382:-0.0140752122409315 3826:-7.32260401982874E-4 3827:-0.0053858612092027676 3830:-0.0244047540361833 3831:-0.042089301853390236 3828:-0.010493250872616247 3829:-0.015479623172609687 3834:-0.07262996918870898 3835:-0.07156770649931844 3832:-0.04720208000015686 3833:-0.06138390293636253 3838:-0.0839471906622782 3839:-0.08942847164589124 3836:-0.06452551387258262 3837:-0.0698130151371588 3811:-0.02119010983254821 3810:-0.02470547369593998 3809:-0.030735162494496374 3808:-0.01828192045264638 3815:-0.006557621519678588 3814:0.0050306488429601864 3813:0.008351511409617724 3812:-0.0016952126650306334 3819:-6.715228771617166E-4 3818:-0.0019109496698876502 3817:-0.0022835854377604215 3816:-0.007049635947798661 3792:1.8193579454464737E-4 3798:-8.216870732971357E-4 3799:-0.0032031395391974196 3800:-0.007887830883833663 3801:-0.008780406108435671 3802:-0.0024787723166823645 3803:-0.011046332376969191 3804:-0.012511215136570341 3805:-0.016418598086480385 3806:-0.017473176995431272 3807:-0.035064644694075366 3777:-0.008852228338453857 3776:-0.012071840235028383 3779:-0.00576641674524547 3778:-0.01701080764878941 3781:-0.0010769087117055557 3780:-0.012858604514231545 3783:0.029978785422666267 3782:0.008570619417641756 3785:0.04199206783601272 3784:0.03856482120342451 3787:0.017811829000915595 3786:0.038321297752991604 3789:-4.88312517990016E-4 3788:8.228041856373022E-4 3791:-5.74198671236849E-4 3790:-0.0021902148819223474 3764:1.8193579454464737E-4 3762:-5.887132648063861E-4 3763:-8.933437116850409E-4 3760:-0.003980710174381873 3761:-0.002020904888309322 3774:-0.012701138469850189 3775:-0.014774135288485197 3772:-0.01222524045197891 3773:-0.01990158865785225 3770:-0.0017089010118901495 3771:-0.008524951032989725 3769:-3.301226411695244E-4 3751:-0.016188745711149317 3750:-0.019855034318240043 3749:-0.016431488316939663 3748:-0.029555034292835042 3747:-0.03410322459221503 3746:-0.03670511220435398 3745:-0.042708084286111433 3744:-0.02704524877819724 3759:0.014845050474161759 3758:0.028151397977460635 3757:0.03826551554740666 3756:0.030905250111762962 3755:0.018719895639073305 3754:0.0028393566249239437 3753:-7.587956056697405E-4 3752:-0.01822502713990118 3732:-0.013774339837558068 3733:-0.008406325656786869 3734:-0.004816723268031155 3735:-0.006606946280144422 3728:-0.0029661318965971237 3729:0.0038574695585864914 3730:-5.267427161471083E-4 3731:-0.008084653291524089 3741:-0.0015629388597661982 3742:-0.002962461950540235 3743:-0.013210628530494121 3717:-0.07087077050881815 3716:-0.05195808076258001 3719:-0.05937534925493289 3718:-0.07106602651170914 3713:-0.002885235280630982 3712:7.832625695861498E-6 3715:-0.022898508811825327 3714:-0.008477750964863725 3725:-0.01004315892886438 3724:-0.02457404424434065 3727:0.008077880264859059 3726:-0.003755922565922863 3721:-0.04113637359188787 3720:-0.05466862472163495 3723:-0.04943624724574378 3722:-0.04139395353226455 3707:-0.007798362606545833 3706:-0.009315417207427382 3705:-0.01634920074270784 3704:-0.027649936510740183 3699:-0.015450701312034952 3698:-0.017065044627834886 3697:-0.030092839893860714 3696:-0.03253410891429898 3703:-0.02328054942859881 3702:-0.02352026520312837 3701:-0.028368020161121648 3700:-0.022683373209950168 3690:-0.09701096320734394 3691:-0.09887247344565209 3688:-0.06121931575164329 3689:-0.08692316777919551 3694:-0.0642334368942769 3695:-0.061758119001957774 3692:-0.1011834658565047 3693:-0.07757465017710428 3680:3.4742378248803495E-5 3686:-0.016560254313015495 3687:-0.035153938463384646 3684:-1.3986232066084042E-4 3685:-0.00489103756850702 3673:-0.04174044696606887 3672:-0.03749052092995343 3675:-0.04124746523416127 3674:-0.048031293666594616 3677:-0.02553045318269061 3676:-0.04418971461341325 3679:-0.009335476830921431 3678:-0.013095285926165604 3665:-0.08969790472009247 3664:-0.09732507588463578 3667:-0.03878829757897261 3666:-0.08163390653441621 3669:-0.013009122598529552 3668:-0.005146290539042714 3671:-0.03424426513081548 3670:-0.013386850420432276 3656:-7.318098554175846E-4 3657:-0.006575804580807025 3658:-0.020991356807659668 3659:-0.038113488429073174 3660:-0.05266813299214706 3661:-0.05974681188925465 3662:-0.0695976094086735 3663:-0.08484360015466043 3648:-0.04520654391434806 3649:-0.028311709552021204 3650:-0.01325473646973098 3651:-0.013531370635271094 3652:-2.0797844468559062E-4 3653:1.7287119596240675E-5 3647:-0.04755008010206081 3646:-0.035195446878456785 3645:-0.04343256018761348 3644:-0.04153167064296671 3643:-0.02538620902634969 3642:0.020905197756807332 3641:0.045944432121580565 3640:0.04340994516083151 3639:0.03671092100207029 3638:0.009160150336265709 3637:-0.03464877079040823 3636:-0.03196983187428397 3635:0.005095640206789135 3634:0.02406935534425797 3633:-0.0020144763187557773 3632:-0.019911798701542187 3630:-0.02246249822303292 3631:-0.02716064679730894 3628:4.126860329397902E-5 3629:-0.008281694797887828 3626:-1.5281244635131946E-4 3624:-0.0012659140988981591 3625:-3.3658176397695854E-4 3622:-0.01058053051102884 3623:-0.015126451270275914 3620:-0.02887066232731813 3621:-0.01977699552889462 3618:-0.020896440431732412 3619:-0.020547140126114426 3616:0.023733057304101145 3617:-0.014021625154408851 3613:0.10735823123728117 3612:0.10391063091974748 3615:0.04519269665091874 3614:0.09159929600116147 3609:-0.0010962173555362552 3608:0.018858594606380622 3611:0.08224842835370946 3610:0.044594973498595 3605:0.055276840972479556 3604:0.020582983602241724 3607:0.05583977306087964 3606:0.07928096698840516 3601:-0.006744130239524083 3600:4.436719628251993E-4 3603:-0.011258048740670932 3602:-0.013093503482486144 3596:-0.0033021689038840204 3597:3.218130161205363E-6 3592:1.6467447694568704E-4 3593:-0.002036009905720349 3594:-0.003662943383825748 3595:-0.015571915991195995 3588:0.06349105499839454 3589:0.04054145000142025 3590:0.019315562293149985 3591:0.011223053096909885 3584:0.07898031345167214 3585:0.12827420158435712 3586:0.11840334199568252 3587:0.08847201591565836 4065:0.05361619265584268 4064:0.06260558745751897 4067:0.021330534139867564 4066:0.04229678671103261 4069:2.4951529337729074E-4 4068:0.005693726904415908 4073:-0.0058603648894282115 4072:1.9894058081376562E-4 4075:-0.03341608936237643 4074:-0.01852382258353905 4077:-0.03362554848807733 4076:-0.04431120113568721 4079:-0.004414592577356665 4078:-0.019295869264400793 4080:0.0194205469976415 4081:0.025700694942842876 4082:0.010435797709088363 4083:0.008227198122079124 4084:0.017477831444056235 4085:-0.005085725045383347 4086:0.0025234675026455985 4087:0.009711174544494577 4088:0.024000326164300114 4089:0.029936336431888554 4090:0.027705428919210007 4091:0.04518469464848432 4092:0.06940703694902423 4093:0.09777013035405925 4094:0.0959853425495849 4095:0.04643996612166285 4035:0.017082919768494745 4034:0.003269611319382966 4033:0.00723094690383064 4032:0.01800269528087255 4039:0.006058226591765944 4038:0.01675336508876559 4037:0.02450380944863186 4036:0.02068896484164318 4040:0.0013216325382041161 4047:-0.02060281763015481 4046:-0.008191173389122267 4045:-0.0020097193384645195 4044:-2.0777807986388473E-4 4050:-0.028763284862982717 4051:-0.023955817003906383 4048:-0.033330609984002425 4049:-0.03777574298656129 4054:-0.010446741577429208 4055:-0.014289457180053668 4052:-0.015765002799191206 4053:-0.0020515584904232027 4058:0.008185766570479498 4059:0.03666245782794149 4056:-0.014903596369829908 4057:-0.007438705047212454 4062:0.030760948091674307 4063:0.04193283986275057 4060:0.03338282410481292 4061:0.023355682425298552 4005:0.0022680134123918808 4004:0.002814372539573386 4007:5.965552101109769E-4 4006:0.0012054062728758617 4001:-4.702038418141137E-5 4000:-0.001955529318619455 4003:0.001059132704467296 4002:-0.0022641190567891222 4012:1.4808589326967102E-4 4009:-0.0083553323819527 4008:-0.004963918693556195 4011:-3.783267020462668E-4 4010:-0.005124213368843932 4020:-0.01121309167390988 4021:-0.019046251029085633 4022:-0.026402817567772074 4023:-0.030029401359921267 4017:-2.7667004979332405E-4 4018:-0.0017602485055237406 4019:-0.006913787658283831 4028:-0.023487145294572034 4029:-0.00428737072629996 4030:0.009915294246953112 4031:0.02130036270130563 4024:-0.03663821248016559 4025:-0.03646371671367899 4026:-0.033163950632319895 4027:-0.038205067504419835 3975:-0.0016842678508977584 3974:-8.456981943977297E-4 3973:-0.0012387745125152301 3972:-0.001884181024233969 3971:-0.0016770194092244162 3970:-0.0015097539649139118 3969:-0.0011303367138338646 3968:-5.673890836920631E-4 3982:-4.890627078866565E-4 3981:-0.0018820448660524446 3980:-6.96546568674537E-4 3979:-7.954122562707982E-4 3978:-0.001544591642252492 3977:6.227726656033407E-5 3976:1.443943336539857E-4 3990:1.5090393020473553E-4 3991:-4.8037919732389585E-4 3989:1.0407190567919376E-5 3998:-0.007610444441234183 3999:-0.006040613542442737 3996:-0.0045324929802942554 3997:-0.007289660386612043 3994:-0.0013945147439180566 3995:-0.003831147411573538 3992:-4.1722712084414827E-4 3993:-0.0017118094673410043 3942:-2.4014289059250035E-4 3943:-1.5895189289211718E-4 3965:-2.2182025110098092E-4 3967:-6.100410434446559E-4 3966:-5.6092436026501733E-5 3884:-1.5677511331563257E-4 3885:-0.0011667225739690535 3886:-0.0013242769974103946 3887:-7.065915083280624E-4 3872:-0.002073637840213283 3873:-4.463222200321516E-5 3874:-6.337724658417918E-5 3900:-4.6749185502534984E-4 3897:-0.0025129476982361214 3896:-0.002262204082592401 3899:-8.831896462962214E-4 3898:-8.164117260575382E-4 3893:-0.0028920550388746467 3892:-0.005152212615759026 3895:-0.0015076631505342882 3894:-0.0030614552987961474 3889:-8.339876151125914E-4 3888:-0.0012444045937379585 3891:-0.001964696204191581 3890:-0.0014701919902277252 3854:-9.455438347698126E-4 3855:-0.0023158516360146622 3846:-0.0013798572394455276 3847:-4.3850431517065833E-4 3844:-0.00821487452952098 3845:-0.0026834304769319237 3842:-0.02520097011022843 3843:-0.019208175071634928 3840:-0.06634881108163279 3841:-0.04494258324112281 3871:-0.0054699201325507756 3870:-0.009086187967524197 3869:-0.019864643790574434 3868:-0.03249260099000825 3867:-0.044706444299421555 3866:-0.05225908769020106 3865:-0.049073860024143004 3864:-0.04982299537089241 3863:-0.03793509732596591 3862:-0.036440513296177174 3861:-0.031514960650836386 3860:-0.023384838401195537 3859:-0.01992426863863505 3858:-0.011136509515042097 3857:-0.006946743795678791 3856:-0.005164975751693647 4400:-0.0037125439659611466 4401:0.011412692756225985 4402:0.012656606529844872 4403:-0.0028244105568729356 4404:-1.3891009484400714E-4 4405:-2.3588367415197816E-5 4408:-0.0017395721987646339 4409:0.013093702922801436 4410:0.021906361496072512 4411:0.022258985793594855 4412:0.06522152496101177 4413:0.02032720143847931 4414:-0.037943857922500504 4415:-0.09328585739210685 4385:-0.05709110234128538 4384:0.003956777785760125 4387:-0.13400315410981314 4386:-0.1073042647476338 4389:-0.08272068393689543 4388:-0.11714055604815456 4391:-0.08712084650961881 4390:-0.0941927223245775 4393:-0.026765769728859617 4392:-0.05745886871404215 4395:0.008364308026177296 4394:-0.014471973914976313 4397:0.013254072370013813 4396:0.018621420660640306 4399:0.00724785071781201 4398:0.007360826168328923 4370:-0.004889870994720431 4371:-0.006754869469058592 4368:-0.012659052591427057 4369:-0.002712052789064067 4374:-6.083897315592218E-4 4375:-0.010207047079075564 4372:0.004761694596137868 4373:-0.003506761994269823 4376:-5.399156957162705E-4 4377:-4.5866612910527377E-4 4382:0.00106240556143764 4383:-0.0038973689555029272 4380:-0.0023792300019696527 4381:-0.001411146592557709 4355:-0.031302921072342595 4354:-0.0028338910963244305 4353:9.49579003119179E-4 4352:-0.001104339164226419 4359:-0.05617475678628099 4358:-0.07937621482968996 4357:-0.07906377032870227 4356:-0.04376841654703661 4363:-0.05968895306213657 4362:-0.03398858075648156 4361:-0.0154934983018074 4360:-0.02713498027755997 4367:-0.018165351080404755 4366:-0.03454318653017148 4365:-0.04951880363348423 4364:-0.0734521188928876 4468:0.052102580021899374 4469:0.06505843432494551 4470:0.08084074039407438 4471:0.07627518505318281 4464:6.027743676893135E-4 4465:-0.005206164385710712 4466:-2.864983097701338E-4 4467:0.02581877450738939 4476:0.00792304765178863 4477:0.0011703902712775778 4478:0.007175554663535804 4479:0.019390687296940077 4472:0.05266565468048691 4473:0.03640807757409305 4474:0.018608882108371617 4475:0.033750804573264355 4453:0.011054702151948188 4452:0.025447191903932152 4455:0.023982457309142544 4454:0.03061617475079586 4449:0.018609230022457166 4448:0.03541357623823295 4451:0.014041644221434082 4450:0.0017860712530824241 4460:-3.5252923984624115E-4 4457:0.03150808746661355 4456:0.032463143292370045 4459:5.974956345875387E-4 4458:0.02006882566361707 4438:0.02327762528903318 4439:0.03151413671455597 4436:7.506497056532307E-5 4437:-8.076235588997932E-4 4432:-7.054804567665598E-5 4446:0.0025531964851427426 4447:0.03239622267889599 4444:-0.01729605930067207 4445:-0.019302427604080196 4442:0.05116658070433093 4443:0.003995042219241524 4440:0.08008516427043195 4441:0.07791361486995659 4423:0.019213496289066764 4422:-6.050253243639188E-5 4421:0.005748969133294797 4420:0.009416380969414738 4419:-0.02754341781270087 4418:-0.08295225729309615 4417:-0.10773897082772373 4416:-0.10598517824066958 4431:1.5974673024083438E-4 4430:0.02468777465827601 4429:0.030319815972823894 4428:0.014207200415739968 4427:0.018323281064812486 4426:0.028274396551701546 4425:0.028070535634354375 4424:0.023831003436087225 4537:0.032003709615700655 4536:0.025405220587005794 4539:0.028022864338060942 4538:0.029499922676244152 4541:0.012013577535791263 4540:0.02518031903350749 4543:9.393326953121537E-4 4542:0.002148198216757558 4529:0.045964908252520066 4528:0.04076804155408045 4531:0.047719753963783335 4530:0.04248351590811735 4533:0.03734970318420081 4532:0.03998368090424684 4535:0.021594993637825997 4534:0.03290254241946779 4520:-3.6641536968582984E-4 4521:-0.0035072253348207446 4522:0.004827566073306776 4523:-0.00963419213396941 4524:-0.014198210748113872 4525:-0.004314880849402766 4526:0.011642130334015942 4527:0.04102756003389234 4512:0.04149713267717716 4513:0.024722169322739157 4514:0.004993540784632357 4515:4.319187335482258E-4 4516:-7.041573898253468E-5 4507:0.025067801701048907 4506:0.011340490431755043 4505:0.013817547181647055 4504:0.010742449059646947 4511:0.0477557670389389 4510:0.037363952524563405 4509:0.020181818158172198 4508:0.01501653389533831 4499:0.053944160460704264 4498:0.05628744285618897 4497:0.03282283490999713 4496:0.017238905290215045 4503:0.017570544493940427 4502:0.017103426484936467 4501:0.028982643135045033 4500:0.029991121084949557 4488:-6.396033430112026E-4 4489:0.0 4494:3.490410187650577E-4 4495:-0.005113078127453023 4492:-2.17651229801185E-4 4493:-0.0013906943208845833 4482:0.021439458686604736 4483:0.028409913610805436 4480:0.011826427281117368 4481:0.01477586847254426 4486:0.011621901140264212 4487:5.744050015612934E-4 4484:0.0440309599223431 4485:0.03154719880473133 4605:6.72486960481912E-4 4607:-0.0021523277865531853 4606:5.355791634353355E-4 4597:0.001708819625385446 4596:0.004803837397973459 4599:-6.603376829801601E-5 4598:0.0010476879626918174 4593:3.3846973050474273E-4 4592:0.005871031809844535 4595:0.0031491923278105594 4594:0.004263814735637072 4588:0.04319573593028822 4589:0.023037407532384917 4590:0.0127544239705597 4591:0.005631381591251787 4584:0.026200715336084573 4585:0.0339700014573091 4586:0.03985536716006106 4587:0.03627654726514208 4580:0.0027979483053653773 4581:8.664395716883788E-4 4582:0.0026858354447326263 4583:0.03333398031782879 4577:7.399100336765916E-4 4578:0.0014126043221632262 4579:0.003550184302183654 4572:1.5129486527719942E-4 4571:7.402572450275406E-4 4570:8.913070898258746E-4 4569:0.0034235993986953895 4568:0.00541888439547912 4567:0.0074150610254749595 4566:0.019334944279638302 4565:0.012969204408481838 4564:0.008766450058831591 4563:0.018137304531941748 4562:0.029308271838733555 4561:0.03504395972177219 4560:0.046421578157460626 4558:0.05915192845071482 4559:0.047055861951902755 4556:0.0342824124011032 4557:0.058203017294817944 4554:0.011636705905775566 4555:0.028841839365080613 4552:0.0014354379962526285 4553:-1.2749172268771282E-5 4550:0.0032953545311561723 4551:0.004068516359910736 4548:0.0 4549:-0.0015384572199577914 4544:2.504196400056031E-4 4131:-0.04600311260448251 4130:-0.04071802322856448 4129:-0.01058328624028735 4128:-9.678270391092893E-4 4135:0.023701439766175985 4134:0.024558747723019244 4133:-0.00825183853585396 4132:-0.03433214198400079 4139:-0.015016936688158875 4138:0.011500617443929223 4137:0.04122864194089104 4136:0.03502603427823642 4143:-0.002664566741761614 4142:-0.03665169009513179 4141:-0.04203943129187278 4140:-0.028710788352688723 4146:0.037376587587442535 4147:0.05686148552262419 4144:-1.3675459874355221E-4 4145:0.019887858412484076 4150:0.1740518860910535 4151:0.1205580221149194 4148:0.07846376869262335 4149:0.14366824891524552 4152:0.03356822464117532 4153:0.0028871581564460192 4158:-0.02830808014583092 4159:-0.03280485867533598 4156:-2.0824005133675746E-4 4157:-0.010251391849187242 4097:0.0022819644983496493 4096:0.015046879606485687 4101:-0.009224717282856582 4100:-7.549631068535324E-4 4103:-0.04520674476572062 4102:-0.033172563819315486 4105:-0.02123506620612532 4104:-0.04103376822802307 4107:0.03753175632066826 4106:0.014879515560273669 4109:0.048093248376935877 4108:0.04856571114771307 4111:-0.003586643095430761 4110:0.03243792913357856 4112:7.086199112259152E-4 4113:-0.025898499047299992 4114:-0.015141057209231451 4115:0.009430999110821585 4116:0.01858602922897597 4117:0.023610598921484982 4118:0.023961589997459273 4119:0.03424191898196327 4120:0.06750677468725813 4121:0.11693876045670755 4122:0.14518254401373085 4123:0.0877171973238856 4124:0.021918026739355723 4125:0.0019345971124499692 4199:-0.08670585101602919 4198:-0.06375203258765988 4197:-0.047382883601103404 4196:-0.005306788478246118 4195:0.06492639801286493 4194:0.09143248665567111 4193:0.11778171849313664 4192:0.09339837201201387 4207:0.08028693712986261 4206:0.0870528821426497 4205:0.029852071645044897 4204:-0.027767637463547868 4203:-0.04646527688247277 4202:-0.07020397700757243 4201:-0.08499478674294317 4200:-0.07656625950960907 4214:-0.007165822902427868 4215:0.011204494753364882 4212:-5.314820999718096E-4 4213:-0.005130730347925096 4211:-1.6483191418685138E-4 4208:0.020535928888791126 4209:0.0010389680105266912 4222:0.117901337202427 4223:0.09665834602120645 4220:0.08198703800338512 4221:0.09761664969140631 4218:0.0552844660795626 4219:0.05867817649318147 4216:0.05329866287567461 4217:0.05510939200223086 4165:0.0823613335022781 4164:0.05236025965161856 4167:0.007379202738409935 4166:0.0540486328480227 4161:0.013844082814416713 4160:-0.01975163888162653 4163:0.04156072828758598 4162:0.04755341327455963 4173:-0.0013497875071150165 4172:-0.02646528596105855 4175:0.047023161138013574 4174:0.014419643427074622 4169:-0.07934265252848002 4168:-0.04229017621702052 4171:-0.046531806275665825 4170:-0.07404126216604029 4180:0.02859340442393209 4181:0.0023405068530055963 4183:-3.863330404711446E-6 4176:0.07124384893672478 4177:0.1289566722044824 4178:0.17621575578944879 4179:0.12407747180829849 4188:0.01778914496161212 4189:0.051989292572775465 4190:0.05788622209616705 4191:0.07891075592688211 4184:-2.6878123673651163E-4 4185:-0.0069668135379292 4186:-0.016416347409113415 4187:-0.005910954618459197 4267:-3.21936508236624E-5 4264:0.0024021677701067017 4270:0.0076065950072342825 4271:0.023301044819217978 4268:-2.833231114981342E-4 4269:5.508879660692163E-4 4258:-0.11346550118458319 4259:-0.13005088916734195 4256:-0.06637961241891033 4257:-0.08112362271397583 4262:-0.05574507075989263 4263:-0.00269057943692545 4260:-0.13410075470572566 4261:-0.10012512813633026 4283:-0.04787837825246629 4282:-0.08906033820483902 4281:-0.062082011321616976 4280:-3.096017173376495E-4 4287:-0.062163876156562374 4286:-0.030328759984082434 4285:-0.011143609065838327 4284:-0.01827642188036404 4275:0.03210258288559597 4274:0.04530230915872798 4273:0.03549755087021896 4272:0.025628247133917308 4279:0.06974030779205552 4278:0.11231800229879757 4277:0.10130271297595124 4276:0.0695119126479315 4232:-0.12749240473223436 4233:-0.07129332603465546 4234:-0.014593037821411905 4235:0.025945410680288362 4236:0.008361663333324089 4237:4.595912274637919E-4 4239:-2.833048525086482E-4 4224:0.003898669043418368 4225:-0.05392808436914718 4226:-0.06292138543985516 4227:-0.0921149943603272 4228:-0.10476002667908194 4229:-0.1371054205035893 4230:-0.1606981858492503 4231:-0.14535597820935076 4249:0.13760407768414037 4248:0.07523839023561381 4251:0.08868709070324916 4250:0.12907378942116984 4253:-0.05467293632262599 4252:-0.0022501770907988427 4255:-0.06655798299057013 4254:-0.07606361079603764 4241:-0.0011375716882510102 4240:-3.25800497968986E-4 4243:0.027390078269367187 4242:0.0021112262412198027 4245:0.03969055294808489 4244:0.04838732093178004 4247:0.024983305406610392 4246:0.0484641344914591 4334:0.009429812753137496 4335:-0.0379529189332257 4332:0.0530351335192817 4333:0.033123960354562665 4330:-0.0027501433620274822 4331:0.04934354937233093 4328:-0.03588148618941085 4329:-0.04075719174744075 4326:-0.002093935908826943 4327:-0.031154124069573855 4325:3.3637181957628045E-4 4322:1.0296743378217234E-4 4349:-2.2278044206495913E-4 4348:-2.620914802515846E-5 4347:-0.011783917413042785 4346:-0.01896998443090529 4345:-0.020310661573328177 4344:-0.004740393889041164 4343:-0.001381263422164863 4342:-0.0030246034276293562 4341:-0.02253662093465727 4340:-0.02166911495782002 4339:-0.04076041904437071 4338:-0.05541130693643732 4337:-0.07199020387797912 4336:-0.06319259305410063 4300:-0.0054259715932449305 4301:2.2725951360482965E-4 4302:0.03671201919981775 4303:0.06430241075710515 4297:1.546029409999487E-4 4298:0.0034902053489439437 4299:-0.008578437891968162 4292:3.4645939043376114E-4 4294:3.144684744176271E-4 4288:-0.08146539672423911 4289:-0.07844167414355156 4290:-0.04569928937410052 4291:-0.006386479442626349 4317:-0.05115106422710295 4316:-0.03286085639128364 4319:-0.010326885538078354 4318:-0.037195373861245724 4313:-0.020323205519043732 4312:-0.035039855096700205 4315:-0.011340335257815802 4314:-0.003826529625985792 4309:-0.0578223528572012 4308:-0.029705406399648474 4311:-0.05216805764337054 4310:-0.055044017760231066 4305:0.051324173780420916 4304:0.09930911525097648 4307:0.0032675271884423057 4306:0.050182946155548476 4886:-0.01545260366271338 4887:-0.026105003615564906 4884:-0.022305857375919932 4885:-0.011345019939869076 4882:-0.004229833290058885 4883:-0.01416314400074697 4881:-0.003425628836411587 4894:-0.04219701922968873 4895:-0.06565449992747063 4892:-0.04529048449233178 4893:-0.026537938849797413 4890:-0.05957927067280786 4891:-0.0671779754111015 4888:-0.026023443325522477 4889:-0.03400581268335313 4871:-0.03041583752835485 4870:-0.028771792988707124 4869:-0.027035575033133155 4868:-0.014398713905964654 4867:-0.02031573875447382 4866:-0.03405804858201291 4865:-0.027138576613471757 4864:-0.042960924826130995 4877:-1.326252558360832E-4 4876:-0.001888344653728406 4875:-0.004180398149585308 4874:-0.011668601939491121 4873:-0.020932365079267955 4872:-0.030958158926746256 4916:-0.03259718333005035 4917:-0.05059661065303386 4918:-0.04759077685025745 4919:-0.039076040882923775 4912:-0.03183577846354575 4913:-0.018819302783404837 4914:-0.013610659799885003 4915:-0.016819208747884198 4924:-0.12707270524706665 4925:-0.12842619984144127 4926:-0.09651886449939698 4927:-0.07639540685001261 4920:-0.04667158618199945 4921:-0.05234878208990444 4922:-0.05794105612728883 4923:-0.10570103865438882 4901:-0.0362323095949391 4900:-0.055108094092116325 4903:-0.004351287507541417 4902:-0.014818942963900327 4897:-0.09044930971621015 4896:-0.06023903622690711 4899:-0.06496740825053765 4898:-0.08204581314958123 4909:-0.002173720023237106 4911:-0.019877278302775078 4910:-0.00570651693467587 4905:-4.723047147826019E-4 4904:-0.002303351993551204 4946:-0.014324866979846522 4947:-0.03581828283633746 4944:-0.034756601637250965 4945:-0.02812910011604376 4950:-0.10259185499179446 4951:-0.141279337815082 4948:-0.0317168530175119 4949:-0.05174311112179336 4954:-0.08049925430509612 4955:-0.06471617700956044 4952:-0.1395664570722894 4953:-0.1033711622724792 4958:-0.03398530183282595 4959:-0.01772257433607575 4956:-0.06334373024459126 4957:-0.05242672913346758 4931:-0.008710470878902886 4930:-0.026568722905501635 4929:-0.04993684202545305 4928:-0.06343342434958091 4933:-8.640308814581788E-4 4932:-0.005564441725884578 4939:-0.023479923499092965 4938:-0.012164093680174763 4937:-0.0034226986561181534 4936:-7.209117242812817E-5 4943:-0.020546934843418733 4942:0.006945345128213495 4941:-0.0029854315698422972 4940:-0.023070918980646657 4976:-0.023294154842704806 4977:-0.0766445511236255 4978:-0.11493934154486911 4979:-0.11722103929596424 4980:-0.09286117308857121 4981:-0.058681888862753405 4982:-0.04501378281771583 4983:-0.028991808555593763 4984:-0.0281922143787014 4985:-0.024197458130269002 4986:-0.026815573661497182 4987:-0.01777430913498496 4988:-0.0060161127481197455 