0:-13.915212102168457 1:35.67185997717434 2:8.327623305512402 3:2.6251660537039716 4:-17.377867591854066 5:-4.779816990712467 6:10.520295180549546 7:-15.385465931293163 8:-16.64134275215316 9:6.505482213835185 10:16.352077916355373 11:-0.5953305837869716 12:8.125906148269632 13:-7.460747661000615 14:-5.329524985236285 15:0.4396704436515386 17:12.463313199516339 16:-1.4970517426921466 19:11.910119334192169 18:-0.7382293902477775 21:-10.611601065933462 20:-0.8273784597600721 23:6.626722644685412 22:5.253787518826758 25:-7.593259758850231 24:13.187242768261346 27:5.480844767804571 26:-15.21721516898476 29:10.927220205414772 28:10.927220205414772 31:-16.400593620254337 30:-8.237372932314118 34:0.14790558338340484 35:9.379897211857934 32:1.2396410016177 33:-2.540901345603073 38:21.36095903606832 39:-10.253257259220993 36:7.302434990525127 37:14.44329134897181 42:-40.587534936409085 43:-13.138937111946708 40:-20.365072827461983 41:-30.48455425641861 46:-8.834916676257105 47:0.910365318665717 44:19.31867564605555 45:-5.178116053342403 51:-0.08743668141130376 50:8.4233675016024 49:19.827390844955072 48:8.52558970905487 55:-2.254462073259023 54:16.564643327232726 53:-2.5257755904211017 52:-15.924997724366067 59:0.28756679091726195 58:16.67944724835079 57:12.753445848958707 56:-8.849072466084111 63:-12.740522730726745 62:24.820492166016848 61:13.700682167956693 60:7.979934288627243 68:24.97972063639289 69:4.437484656962185 70:-31.017793163183274 71:4.607189614917389 64:49.955178765894985 65:-15.577721211215847 66:23.548863355264142 67:6.216732729980074 76:-0.04416426448565005 77:2.544311460338624 78:0.22549092001458684 79:3.951894777727936 72:16.161636285678533 73:-5.56640087918728 74:20.087751907750008 75:-6.680575712201613 85:4.5859063077052635 84:24.596524965760892 87:9.558589140642486 86:5.455650536691903 81:-16.051296217381186 80:1.7484452801106838 83:7.455773556938491 82:-10.12486091404172 89:-4.693781444679109 88:29.217194044098957 90:17.62097304277546 
