0:-1.549675343991758 1:5.418146794395017 2:-1.2091366491911868 3:3.429686460416029 4:4.599252548101808 5:0.3787736315909924 6:4.923190566784961 7:-15.275565847410054 8:5.3865083144288235 9:-44.60859093869419 10:35.18304834261819 11:-3.2314473630498655 12:11.921257846558774 13:-11.698109350635145 14:-3.825808428351502 15:-0.05505675634518394 17:15.668512199946758 16:-10.211017672063408 19:4.647155400904007 18:-5.914656973244381 21:-6.350167751127548 20:2.895773347147165 23:10.898125205435225 22:3.1463954577986137 25:-13.109929142831948 24:21.89864984912256 27:14.43203063669622 26:-26.071695491049233 29:28.85674453290472 28:28.85674453290472 31:-36.621390281011394 30:-18.391575772050356 34:1.9629640779082973 35:-5.01277473563251 32:-0.8783503019292617 33:1.6911354294546337 38:68.9265968173763 39:-14.815436860162718 36:23.352733326670844 37:46.50525285043246 42:-59.28375659762915 43:-26.319086973385367 40:-29.32775544586696 41:-44.13645942473099 46:-9.9768415439884 47:0.44763420750995303 44:29.67596054017006 45:-18.003822050504407 51:6.9509419260789835 50:9.259818516857205 49:38.30227766888418 48:10.978229347512878 55:-10.232365739031575 54:12.808339119439497 53:17.29192591418964 52:-7.156205799821665 59:-1.8438819657786385 58:16.52318635358046 57:7.648081438824999 56:-15.000188445322374 63:-82.03459529662967 62:70.02938718154604 61:-33.44875725356302 60:-4.777435233434871 68:96.23405770749058 69:6.646414820196811 70:12.464461223264324 71:0.33544924375224233 64:84.55506626706261 65:-63.735405963972255 66:93.84483833062737 67:13.588556011746894 76:6.784419712140874 77:0.13386752682066586 78:11.275560556417869 79:8.893373317969594 72:46.46195587509066 73:-4.006865390998058 74:14.067707357085322 75:-2.6317086874549176 85:-2.8222612363050503 84:50.719871057847286 87:8.305210687635459 86:-8.321831699587912 81:-10.742422239977545 80:-2.962238881264672 83:9.99808667075658 82:-37.078269998233914 89:-0.5306470392547169 88:48.54136826890972 90:23.914482572655157 
