0:2.1337166829720933 1:1.2666992468014784 2:-13.736079218599816 3:4.048640254569265 4:-7.285672944548053 5:3.907093336684011 6:6.146942241517989 7:-15.644926545392222 8:-12.774273859519448 9:-15.80811638869473 10:43.00117194547331 11:1.0468498254762089 12:1.5156589490488928 13:-11.652777582242882 14:-3.339324334431699 15:1.821300202489532 17:-1.1381585534605467 16:0.8707708817922355 19:21.397745374916504 18:-6.684789042939943 21:8.165535966600695 20:-1.030510266545323 23:1.465078434789104 22:0.07725366080199508 25:-3.8152227945325476 24:-1.5068068946214594 27:17.28832148082522 26:6.857958200929065 29:-26.712138170918912 28:34.50066566359091 31:20.71683219565242 30:-53.18531609169634 34:-22.392577764488422 35:-44.80519820244609 32:41.276877099231065 33:41.276877099231065 38:-0.17221196483757967 39:7.575553980064478 36:5.934876301358562 37:-10.3860828717343 42:43.55658282395197 43:-9.907775406343687 40:14.76968822801725 41:29.28188961718455 46:-45.1620693472534 47:-33.394859437434384 44:-20.60830320776462 45:-32.30276646949179 51:-3.671610715133962 50:16.52314888472477 49:8.111593280458418 48:-67.15773549599919 55:-3.4347439284325825 54:-22.524180516489647 53:-12.088482454024966 52:-6.478044055031304 59:14.48634866288709 58:-5.027862874539257 57:-2.7532038283112876 56:-7.1887487777623305 63:-11.735250399485604 62:-19.466771635747552 61:42.43492453428948 60:28.72914144121167 68:9.770530268545667 69:13.767682688031634 70:-1.4595278798339761 71:0.8884742799240936 64:39.42281735670743 65:40.554064995242264 66:14.266852026498185 67:-38.92556318773965 76:-1.93229195572922 77:-11.919631233528388 78:-23.649527033940807 79:-24.00532681602504 72:18.893566126149736 73:34.29684074406413 74:-6.83212590950772 75:-6.9209602597412045 85:11.809685506853372 84:-7.608913552619359 87:12.610215896805792 86:1.9731934320216449 81:26.027174250099854 80:11.874909857702708 83:5.303997683254749 82:-2.329850844654782 93:27.97685473596 92:-91.40683383689858 95:93.96784788051987 94:6.654108041308827 89:82.83286207071805 88:5.548981284723629 91:131.9659012703987 90:-110.12009420915305 102:-12.454998406410883 103:6.580335809304067 100:-13.772950271008611 101:51.85470238761835 98:-21.230324436730292 99:56.71729035375113 96:25.516847513319703 97:-23.98636022231212 110:13.966326905409268 111:2.3618477857149056 108:16.369023454917606 109:28.58605559176082 106:-4.602837450547177 107:-20.922134919216205 104:-5.305347212638221 105:-19.690487212988142 115:35.360809883182824 114:-8.887159600580418 113:47.2910614535857 112:3.2498277633854995 
